[[ 15  30  25  -8 -40 -21 -11  12   7  27 -27 -17  -2 -28  -6   2]
 [ 41  -2  -7  -9 -69  -7  26 -43 -15 -12  21  15 -12  -1 -12  17]
 [ 49 -14   6 -21 -35 -15  -3 -44  -6 -31 -21 -10  -5  -8  16  29]
 [ 45 -24  18 -13 -24  -1  19 -29  13  75 -24   4 -17 -21   5  18]
 [-12   5   8   3  15  -7   1 -22   8 -21  17  23 -25  10 -12  20]]
[[   8   11   10    3  -30  -25  -26  -36  -16   -1   13  -27   11  -16
   -24  -42]
 [   7  -49   26   18   29   35  -23  -20  -10  -18  -12  -14  -23   10
   -22  -35]
 [  -8   -7  -10  -27   10   21   17  -19  -14  -62   -2  -19  -23  -14
    18 -105]
 [ -42   29   -9  -16   -2  -31  -18   -7    4   32   16  -24   -8  -13
    16   21]
 [ -17   10   12  -18    8   -9   22   -3   -1  -59   15   14    3  -19
   -17   -5]]
[[ -37   -2  -11   12    4    8    8  -29   20   22  -24  -28   19   23
   -25   -7]
 [  -5  -24   -5   11   25   58   20   -8  -25 -123  -18  -13   -6  -16
   -16  -21]
 [  76  -39   18   -5  -24  -54   13   59   18  -84  -14   -2    8   21
    21  -22]
 [ -32  -33  -10   -1  -10  -45  -29   30  -19  127   20   25   17   -9
    20   72]
 [  -4  -15  -28    2   -1    9  -21   -5  -25  -52  -20   25   16   -6
    12  -35]]
[[-26 -39 -12   0 112 -29  21  85   3   8  -4  14  10   6   3  35]
 [  4   5  22   9 -33 -10   8  21  20 -88   4  21  -3  10  18  30]
 [  9  -3 -14 -23 -14 -24   4 -41  20  69   4 -12 -11  22 -24  49]
 [-32 -26   1 -28  60   6  -1  19 -17 104  -8  10 -26  -3  19  57]
 [ 37 -32   0  17 -10 -44  15  26 -11 -60  -1  16   3   5  14  25]]
[[ 70 -24  20  10 -18 -44  27  -2  -2  10  15  17   7  17  24  38]
 [  9  -6  19  -7 -14 -21   8 -11 -11  43  22  21  25 -16  26  47]
 [ -6 -24  -4  19 -17  37   1   0   0  49  13 -12   4  24 -11   0]
 [ 51 -37   7   8 -30  25 -24  -3  14   2 -14   7  -4 -11  -7  13]
 [ 34 -17 -23  -2 -45 -13  25 -70  -1  88   1  23 -16  11 -17  26]]
[[  -1  -24   20    6  -27   43  -23   15   -4   13   17   23   14   -8
    -1   11]
 [  20  -23   -2  -37  -53   35    8  -23  -21   -3   -1  -14    3   12
     2  -32]
 [  61  -44  -24  -10 -107  -38   -8  -39  -33   40   21   24   16  -34
    14    6]
 [  19  -54    6   24   -8  -27   24    3   25   35    2  -11  -22   -6
     7   74]
 [  18   35   21   -7   61  -12  -34   13   -4    5  -24    4    5   24
   -11  -10]]
[[-15 -48  -4  18   4 -18 -27  17   6  -5  -7 -30 -25  19 -19  24]
 [ 35  10  -2  25 -13   4  20 -11  -2 -17  11 -15   0 -31  14  30]
 [ 20  12  15  14 -88 -23 -18 -30 -20  49 -24 -16 -21 -35 -16  23]
 [ 15 -31  -1 -38  15  -2  19 -81  15  50 -31 -10  14  20  11 -34]
 [  3 -19  -1  -6  62  -9   8   2 -25 -22   2  27 -11 -25  25  35]]
[[   2   26    8   24   24   -1    8    8   -1  -28    0   22   -9  -14
   -22   32]
 [  31   -7   21   20    4  -59   26  -29  -38    3    6   12   14  -11
   -34   44]
 [ -72  -21  -11  -10   20  -28  -25   -4   18   67   -2   -9  -31  -25
    17   81]
 [ -48   29    6   -6  -27    9  -14  -21   16 -101  -21  -29  -33   -4
   -12  -55]
 [  57  -44  -20   18  -85    8   22  -16  -19  -48  -20   -6  -26   -2
    -2  -11]]
[[  3  -4 -18 -29  -3  -6  -4  39 -27 -49 -17  -8  -8 -33 -12  40]
 [ 23 -13   4  13  -8 -44 -32  38 -23  21   1  13   2 -27  -1  86]
 [-77  -4 -27   0  -1 -11  -6  31 -34 127 -23  19 -12  26  -1 126]
 [ 18 -11 -26 -34  -7 -39   4  67 -31 -22  22 -27  -5 -24 -37  44]
 [ 40 -33  22  28 -50 -69   2 -41   7  32  17  20 -14 -19  -1  90]]
[[  58   38  -17  -17 -101    3  -31  -23    0  -48  -22  -28   29   -2
    14   -4]
 [  25  -51   -8  -36  -18   46  -29  -25   12   44  -23  -13  -23  -35
   -26   10]
 [   1  -39  -27   -5  -10  -52  -23   47    6  112   23  -20  -24    6
   -12   46]
 [  42   -8   -3  -23  -33  -10   19  -33  -15   76   21    5  -31  -37
   -30   19]
 [  26  -54  -32  -26  -60  -10  -31  -57  -32   54  -26   21   -4  -32
     0   45]]
[[ 41 -28 -17  23 -21  17  37 -26   8  10 -28  -8   3   3 -37 -15]
 [ 52 -37  39  22 -19 -11  41 -64  26 -27   2  18  19 -15  26   6]
 [ 49 -60  -4  11 -23 -22   4 -30 -14 -65  43   3  22  41  36  18]
 [ 37   3   9  -1  64  23 -34 -21  38  74  -7  19   1   2 -25  33]
 [ 29 -19 -34 -16  20  18 -10 -21  41 -88  21  27  -4  35  26  -2]]
[[  82  -85   17    2 -107  -38  -41  -60  -14   29   11  -37    2    6
    28   17]
 [  50  -53    9  -40  -75   26   -9  -59  -34  -62  -32  -17    7    7
   -40    7]
 [ 101  -86  -27   30  -48    6   15  -50  -34 -107  -19   35    1  -39
   -31  -99]
 [  25  -66  -35   19  -41  -50  -36  -70   19  127  -33  -36  -17   34
   -15   58]
 [  90  -90   18   44  -27   20   34   23   -1  -49   -6   14    4   -9
   -32   -5]]
[[ -56   71   23    1  -59  -24   26  -62    6   74   11  -17  -36   26
    36  -26]
 [ -82   27   11    0   13   86  -27  -94  -12  -55  -37  -32  -30   30
   -13 -123]
 [  64   47   21   -9  -69   -8  -43  -10  -44  -89  -38   -4  -25    9
    44  -94]
 [ -62   17   -7  -42   33  -16   33 -126  -33  100   15  -27  -11   40
    16  -70]
 [  -3  -13   41  -26  -72  110  -12  -96  -10 -119   11    6   39  -29
    17  -95]]
[[-99 -47 -20  33 115 -59  19  12 -17 -27  33   1  25   5   0  62]
 [-97  28 -15  29  67   0 -38  70  28 -89 -35  -3  35  -5  35 -54]
 [-82  55  -2  17  43   4  28 -24 -34  -7  22  -4  -6  18  11 -16]
 [-70  41  25 -12 101  80  21  10 -19  55  21 -16  -9 -15  40 -75]
 [ 39   6 -22  13  44  -6 -14  81 -20 -96 -34 -14 -45  -2  40 -39]]
[[ 33 -71  41  -8   7  11  22  41  13 -14 -12  36 -12 -37   4  67]
 [-15  16   6  29  94 -51   4  76  28 -28  18  11 -26 -26   7  75]
 [-64 -54 -33  34  91  14   7  57 -26   7  -4  -2   0  -5  13 108]
 [  7 -26 -16 -24  -9  22 -42  76  -9 -44   4   0 -19 -39 -31  35]
 [ 26 -11 -12 -14 -66  20 -17 -13  20   3   3  35 -19 -40 -28   7]]
[[-43  22 -14 -27  12  25   2  19 -17   6  22  14 -25   8   5   0]
 [-71  15   8 -29  82   4   6  20  -6 -10   6 -28  -6   0  17 -60]
 [-28  26  19 -12 -23  31   9  54  -9   5   4  11   2 -12  20 -77]
 [  5 -26 -18  19 -53  27  -4  -2  19  32   2   8 -18 -13 -23 -27]
 [ 36  13  16 -20 -23 -12  16 -54  23 -34   4  22  11  22   3 -52]]
[[-64   1 -14  -7 114  -5   0  57  12  -1  12  22  24   0  -3   0]
 [ -3  -6   7  -9  38 -40   7  89  12 -21   5 -27   0  20  14  28]
 [-35  23 -26   1  -6 -88 -23  23   5  51   1  10  -3  -5  11  79]
 [-39 -12 -20 -13   3 -29 -27 -17  21  41  16   9  21  18  -7 -49]
 [ 18  -6 -24  10   5  27 -21 -26 -25 -10  16 -25 -26 -14 -16 -46]]
[[ 12 -33  17   5  21 -10  27  65 -22 -22  21  22  25  11 -10   2]
 [ 40   7  -8  16 -63 -64  14  17 -27  73 -25  13  23  21 -19  68]
 [ 57   1  22   0   1 -15 -11  -6  -2 127  12  13   9 -26 -12  38]
 [-19 -23  -3 -12  34 -14  -7  -7  -1 -36   7  -4   2 -20   8  17]
 [ 12 -16   3   8  18  29  12  18  17  31  17 -21   1  -4 -12 -14]]
[[ 25 -23 -14  -9 -42  14  -9 -41  21  14  15  20   7  12 -26 -13]
 [  7 -23  -5   5 -16  16  -9 -26 -20   2 -26 -12  24  -2 -16 -10]
 [-26   7  10  22   9  13 -23 -13 -23  27 -10  12  21  16 -26 -11]
 [-12  49 -22  17  -2  10  13  11  -4 -57  12  -5  -8 -16  10 -46]
 [-33  18 -17  14   7  49   5   0 -27  -8 -21  -4 -13 -22   6 -53]]
[[-28  33  -2  -1 -19  24 -22 -22   5 -10 -16  22   4  -3   5 -24]
 [  5 -24  18 -12  13  31  -6 -39   0 -38  15  18 -27  10  21 -29]
 [-26  30 -27 -14   3   2  -1  16  17 -35  10   2  13 -11   8 -23]
 [-40   8  14  16  12 -12 -19   4 -19 -17 -11  21   0 -16   1 -47]
 [-51  25  11 -11  19  -2  16  63   4 -73  13   3   4  -6  23 -43]]
[[-34 -21   3   2  24  -2 -25 -21  -8  10   6   8 -19   3  22   8]
 [-32  -7 -18  17 -11 -14  13  30 -15  19 -20   2  24 -24  11 -55]
 [-18  10  -4   7  -7 -13  20   0  14  26  13 -18  -7 -19  23  -8]
 [ 14   4  -3  -5 -17 -31   5 -11  -3  15  24  -4  20   1  -5 -20]
 [  2 -11  11  -2   8 -30  -7  -9  -4  32  18 -25 -13 -12 -25 -17]]
[[ -28   24   10  -18   39   22    7   37  -24   -5   -5    1  -11    0
   -18   23]
 [ -23   10   18    9  -24  -48  -20   58  -10   43   20   -1   -4  -18
    14   15]
 [ -50   18   -4   14  -33    0  -11  -36   -3  110  -23   21  -14  -10
   -21    4]
 [   6   20   23    2   39   45   10  -26   18  -50   -3   13  -15   -8
    22 -109]
 [ -27   34  -14    1   19   20    8   10   11   23   15  -20    9  -15
     7   20]]
[[  26   -2   15    4    2   -8  -10   28   -2  -56    6  -24   19   11
    16   22]
 [  20   16  -17   14   13  -91   -1   34   15   66   16  -12   -1   -1
     9  111]
 [ -64   38    2   -5   46  -25   21    2    4   46  -19    9   -2   23
     2   38]
 [  -6   -5    8   14  -21   14  -18   13   21 -127   21    2    0  -21
    -5  -68]
 [   8  -16  -14    6   -7   10   22   45    6   23  -17    1   -6    0
     4    3]]
[[ 70 -11 -21  -9 -45  62  15 -52   7 -27 -20  13  26 -25 -14 -39]
 [ 58  17   2 -13 -37  -4   6  -7 -27  76  25 -26  16  21   7  72]
 [ 15  -4   9  15  30 -50   7  26  14  94  -2   7  -7   2 -27  47]
 [-27  14 -16  -3   8   2  23   3  11 -61 -20   9 -13  17  20 -11]
 [ -5  18 -24  16   0 -23  -1 -23 -26 -34  16   4  -7 -17 -10  32]]
[[  8  11 -23   2  -5   8  12  -8  13  -4  23  16  25   1   7 -37]
 [ 33  -7   0 -13 -31  47  20 -33  21  19 -19   7  22 -27   8  -5]
 [ 20   7 -24  21  14  -6  -2  10   4  33  16   4 -23 -19  -9 -34]
 [ 54 -54  13   7 -14  -1  17  18 -17 -35 -21  -1 -10   4  16  15]
 [ 34 -61  -8  23 -44 -39   8  -8  -5  15   0 -12  19  11 -13  44]]
[[ -9  -6 -10  -2  -6  22 -25 -36  -7  19  13   4  -2  13  10  -4]
 [ 29  37 -25   8  -6  28  -4   8  -3  11  13   9 -28 -26  28 -44]
 [ 24  28  20 -10 -50  -9  15 -19 -17  10 -22 -24   5 -17  27   0]
 [ 27   3  28   2 -35 -16  22 -36 -15  41  -4  -3  16  15  11  34]
 [ 18  24   8 -26  14  23  29   4   2   2  -4 -19 -21 -13  11  42]]
[[ 11  -8 -23 -13  35 -11 -14  -5  28  10  30  20   2  -1  -5 -44]
 [-27 -28  21 -12  26  25  18  15 -30 -34  -3 -20  -4 -29 -11 -12]
 [-28  13 -29 -11  10 -38  18  -4 -27  15 -12  -3 -11  23 -14 -41]
 [-22  15 -29  -6 -10  17 -22 -48 -16  44 -19  27   8 -13 -14 -13]
 [  5  12 -11  -9  -8  47  15  -6  10 -68   2   2 -17   6   6 -62]]
[[ 13  -7 -30  27  34  -8 -21  21   3  -8   9   4  31  19 -13  34]
 [ 10 -13  25  13  -2  15   8  -1 -10 -38  24  20 -18 -26  -6  43]
 [ 51  -6 -22  25   3 -92  22  57  11  46 -24   9   6  11  17 112]
 [  1  12 -28   8  -9  -9   6  35   4  -8  -6  10 -24   6 -27  39]
 [ 17  -1   9   2 -35  42 -25 -36 -30 -51   7 -23   1  16  -5 -51]]
[[-11   9  -3  21  72  26   0  31   0 -47   2  -8 -18  31   3   0]
 [ 28  24  18   4 -47 -54 -15  39  14   3   9 -11  26 -30 -19  65]
 [-35 -14 -11 -27 -14   0   6 -16 -29  77  14 -20 -32   9  -8 122]
 [-58  17  -8  -6  29 -20 -10  16 -30 -27 -30 -25  -7   6  -7  25]
 [ 22  -5 -19 -25 -32 -50 -11  12  -4 -10   0  25 -19  21  29  75]]
[[ 43  28   0  16 -48  36  34 -17  10 -12  10   3  27  -1  -7  21]
 [ 61 -37  16  -5 -23  -4 -26 -26 -15  73   1  -3 -10  -7  19  48]
 [ 82 -38 -25  27  13   4 -26 -10  15 127  30   4  21 -25  19  64]
 [ 48 -33  14  11 -59 -22 -18  -5  27  29  -4  12 -28 -29  11  38]
 [ 28 -10  14 -12 -52  -9   4 -65  17  61 -18  -3  30  24 -12   9]]
[[  1  42 -32  26 -30  13 -24  10  34   4 -18 -11 -12 -28  -7  19]
 [-51  -3  -4 -31  27   2 -34  10 -35  22  31  11   6  26  41   3]
 [-65 -25  39 -14  97 -45 -26  27  -1 -56 -11  29   6  11 -29  38]
 [ -4  40 -35  11  59  22  -7  41  12   8 -37 -33  18  43  -7 -22]
 [  9  25  10  28 -43  61 -28  -9  43  -2  -2   0   6 -18 -29 -16]]
[[ 24  30  22 -29  15  11 -33 -26  25  24   6 -17  20 -34 -18 -12]
 [ 73  -8   7  26 -17  28 -18   6  16  13  40  22  43 -20  34 -11]
 [ 66  -9 -29 -30   8  64  -3  10 -30 -41  25  38  -4  15 -38 -11]
 [-57  33   5   8  77   3  29  37 -10 -51  -9 -19  23  34  43  46]
 [-88 110  44  11  13  19  13  63   2   7  -1   1 -15   9 -15 -16]]
[[  35   41   33   38  -20  -25  -33    5   -7   36  -20   33  -19   28
    -1  -13]
 [   0  -24   21   22    6   64  -26  -11   39    9   17    5  -12   11
     7  -48]
 [  20   -4  -26   31  -19   53  -30   11   42 -114  -18   -3   37   16
   -13  -66]
 [  70   -8  -30   24  -82  -20  -21   -4    4   88   43  -14  -14  -11
   -13   79]
 [ -43  -14  -30  -19   92   30    1   43   21    5  -13  -31   40   -1
    22  -32]]
[[   2   36  -39    5  -13   34   -5   -3   12   22   37   40   25   14
    32  -10]
 [  14   13   17   42  -30   89   40  -41   40  -48   34   15   10   36
   -19  -82]
 [  77   -6  -25  -24  -42   13   20    0    7  -58   10  -21  -10  -25
    25 -102]
 [ -61   28   36  -37    7  -33    1  -68   10   92    7  -35  -35   41
   -29    7]
 [ -62   14   22    6   68   19  -21   31  -28 -108   16   30  -14   19
    24 -110]]
[[ -48  -64   14    4  127    3  -33   77   44   14  -11   27   -4    0
    38   23]
 [ -92    4   39  -36   43   -5    5   31   21  -47  -41  -19   10   10
   -15  -86]
 [-109   57   24   13  -19    8  -13  -62  -31  -64    0   21   35   -7
    23 -102]
 [ -26   29  -25   29   59   79    1   70   24  -75   22   44  -19   -2
   -24  -57]
 [ -46   31    8   -2   24  -23   39   84   18  -73   -8  -13  -25   17
   -36   -4]]
[[ 41  -5  -2 -13 -15 -13  -2  -4   9  -3 -18  10  21  29  -4  17]
 [ 28 -29  -7 -13 -17 -60  27  13   9  39 -10  -7 -26  -5  10   6]
 [-65  45 -22   3  68  22 -24 -21  -5   6  24 -10  -3  16 -13 -64]
 [ -3  61   5   3 -12  34  -3  17  14 -35  26 -12   7 -21 -16 -94]
 [-12   6  14  25  -6  48  22  15   3  -7  22  11  -3  14  11 -63]]
[[ -8  27 -14   0 -42  -1 -22 -22  25  40  -1   3  -6  11  27 -12]
 [ -7   4  -4 -10  -5  40  -9 -20  23  43 -11   2  18  19   9  -3]
 [ 13 -34  25  16  33  41 -16  38 -10 -76  10  28  17 -11 -20 -59]
 [  0 -24 -10  14  15  -1  29  16   1 -32 -18  22  21 -14 -18 -15]
 [-13  33  20 -24  22  31 -18  11  11 -41  16  22   3 -16  16 -42]]
[[  12   -9  -20   22    9  -20   -4  -12   30   53   19  -10  -25   -2
     0   14]
 [ -48   15    9  -11    6   44  -23   38   18  -11   28   24  -21    5
   -25  -48]
 [ -44   28   -8   27   10   69   21  -33  -21  -54    9   24   15  -11
   -10 -127]
 [  13  -19    1    9   30   26    1  -11   16   10   -4  -16   -3   14
    -4  -27]
 [ -34  -16    3   22   75  -20   24   61   -7  -73  -25  -20   10    7
    18   28]]
[[ 25 -10   0  17 -32 -47 -18  -7  13  -1 -20  15  28   2   9 -25]
 [ -4 -15   4  21  47  46 -20  30 -12 -41 -25  23  28  24  24 -17]
 [ 24 -35 -24 -19  41  35 -18  68 -15 -77  24  25   6 -24  13 -76]
 [ 33 -35 -10 -13   1  29  22 -29  18 -13 -13  23  15 -18  26  -9]
 [ 49  -3 -24  -7 -43 -13 -20 -43 -17 -11  24  -9  -6 -21 -22 -49]]
[[-36   4  26 -14  17   3 -24  -7  17  48 -23   7 -19   2  14   5]
 [  0  40   2 -11 -29  -4  15 -13  16   2  25  14 -21  -7  27 -55]
 [-26  16 -11 -22   0  41  20 -23  13 -52   5  -5 -10 -24  24 -34]
 [ 16  -4  12 -24  10  14  -8   7  13 -36  17 -14  -3  10   1 -35]
 [-27  12 -10 -13  12  10 -16 -31  15 -23 -10 -20  -1   1 -22 -38]]
[[  40  -20   -4   -7  -56  -29   24   -2   -4   25    1    0   -1   -6
   -21   23]
 [   6    8   10    8  -26   -5    6  -15  -18   40   -3   28  -26   17
     9  -40]
 [ -32    7    0   -7    9   53    2    5   -6   -1   25   20   14  -20
     9  -70]
 [  -1   46   13  -10   -3   57    0  -10   16  -41   19  -21   19   -8
   -25 -112]
 [  13   -8  -12  -19  -47   28   25   -4    3    7   -2   15   29    7
   -21  -34]]
[[ -2  23  11  26 -23  21 -19 -53  -9 -10  -9  10  -2 -16  17 -19]
 [-55  20  13  12  22  55  28   8  -4  37  18  -3   5 -22  14 -51]
 [-15  32   1   1  12  38 -12  41  -1 -13   1  -7  20  -5   4 -70]
 [ 24   1 -10  15  12  17  -2  -1  -5 -80  21  11 -16   5  -1 -60]
 [-58  29 -21  -5  61  25 -16   6  -2   1  -4  -5   9  14  -3 -55]]
[[ -7   2 -18  -6  63   3 -20  67  28  20  16   8  12   1 -20  31]
 [  5 -26  15  24  17 -49  20  67  21   2   5   3  24  29   2  37]
 [-49  18  11  -8  71   0  16  21  21 -15  19 -24   6 -23  11 -21]
 [-47  -3  20 -14  48  23  12  45 -21 -89 -12   8  24  -7   0  -7]
 [ -4 -10  25  -2  36 -38   8  41  -8 -63  27 -25 -23  -7  16  57]]
[[ 50  -6  26   1 -52  -4   9 -16 -21  20   5 -14   2  -6  -9 -15]
 [-23  29   6  -4  16 -11  15 -34  -6  81  30   2   7 -13   9  10]
 [ 44  -8   3  -9  38  40  29  63   3 -45 -11  10 -19  -1  -1 -54]
 [ 66 -40 -20 -15 -42 -27   8  20  13 -33  12  12   9  -1  24  19]
 [ 79 -53   6 -18 -48 -37  10 -64 -20  -8  27 -20 -19  10  16  53]]
[[ -34  -11  -10   21   24  -12    0  -36   -2   22   -9  -25   12    0
     4   -1]
 [ -21   35  -16   15  -35    4   21   -1   20   11  -11    8  -20   24
   -11  -44]
 [   5   33    7  -16  -56   88   18  -16   -5   42   26    3   -4   30
    -3 -127]
 [  -3  -24  -25   -8  -10   58  -10  -73  -24   21    2   13   24   23
     7  -99]
 [  49   10   22  -23  -47   -7  -16  -19   -2   37  -13   25  -11   17
    -3   16]]
[[-22  -1  13 -22  30  15  21  14  14 -18  27  -6 -12   7 -19  42]
 [  5  -7 -23 -26  21 -95 -11  36 -16  18   9  19   0   6   1  47]
 [-28  64  15   0  10  19  25  11 -23  59  13  -4  22  10  -7 -56]
 [-24  71 -25   2 -53 102  24 -15  -7 -82 -13 -17   3  17 -26 -90]
 [ 15 -31  -1   1 -13 -42 -15  -1  13 -56 -18  -9   2  -4  16  47]]
[[  19  -15    9   -1  -47  -24  -13  -18   23   12   23    6  -13    4
    -3   10]
 [ -55   25   -9  -18   99  -22    0    6  -27   -3   -2  -19  -17   -1
    -8   49]
 [ -90   -5   -4   -2  111  -40  -19  118  -24  -23   -8   -2   22   -9
    -9   54]
 [ -40  -59  -13  -14  -64  -39    0   40  -14   -6   13   13  -12   16
     7   35]
 [  84  -51  -22   10 -104   19   22 -113   17  -15   24  -28   -6   18
   -13   13]]
[[  5   4 -20 -23   3  10  19 -37 -27  42 -14   6 -21   9 -18 -43]
 [ 55  39 -25  26 -65  65  23   7 -16 -14  17 -26 -22  -4  17 -88]
 [106  12   2  -6 -48 -15  -7  23 -15  -4  16 -16 -14 -12 -22  -3]
 [-15   1  14  27   8 -16  25 -28  18 127   4  16  -6  -5  14  81]
 [ 40 -15  23  26  -6  -1   7 -25 -17  58  10  24   0  13  18 -29]]
[[ -9 -22 -12   9  38 -40   1  -4  23  30   2 -13   4 -10  24 -21]
 [-63  -1 -17  22  26 -28  15  -9 -11 -61  -8 -24  -1  11 -22 -21]
 [-19 -11  -6  -6   5  11 -12 -18  11 -34 -21 -14 -10  23  -5  -5]
 [-36  33  20 -22 -35  -7  10  19 -24 -38 -19   4 -12  -2  -2 -10]
 [ -4  24 -18   2 -42  20  24   8  15  45 -18  -4   2 -15  24  -8]]
[[ 31   6   2  10   7  14  15   9  -3  15  17  -9   6 -26  11   6]
 [ 79 -28  24  -8  -2  23  25   4 -27 -26   4 -16  -8  -3  -3  54]
 [105 -34  14 -24   3 -66  20  21  13 -22  25 -23  -3   1  -6  82]
 [-16   6 -27  -7 -30 -75  11  32  -7  98   4  17 -15  24  27  70]
 [-46  43  21 -19  41  19 -20  -3   0   5  26 -28   1   0   8 -21]]
[[ -1 -32  13  21   9  14 -17  29  10   9  17  27  19 -10   2   2]
 [-20 -26 -15  27  19 -11   3 -11  -2 -53 -14   5  -7 -30   9  48]
 [ 10 -44  26  13   6 -40  21  26  15 -61 -11 -28 -15   9 -20  77]
 [-37  -7 -24  23  71 -39 -30  37  23  20  12   9  29  25  14 104]
 [-47   6 -20  23  21 -14 -20  33  30 -13  21  -8 -13   4 -14 -42]]
[[ -3 -29  27   6  -6 -38 -14 -10   9 -31 -29   4  -2  25 -13  47]
 [ 17  -9  29  27 -19  -5 -23  -1  -1   3 -20  30  18  -4  -2  54]
 [ 15   4 -14  23  -7  -7 -17   2  -4 -18  16  -1   9  -5  12 117]
 [ 31  -7 -10 -26  47 -49  30  26 -21  -4 -20  25  16 -20  -8 127]
 [-27   4   5   3  42 -93  29  73 -29   6  13  26 -25  -2   4 101]]
[[ 25  -1   3  25 -51  34   7 -29  10  15 -23   5 -21   5   7  -6]
 [ 11  10 -13  28  26 -17  10 -17  24  12  -2  21 -23  10   6   6]
 [  6  -7 -18 -21 -31  20 -23 -52 -10 -31  22 -20 -13  24   5  48]
 [ 97 -16 -15  14 -71   6 -17 -44   1  47 -18  12 -19  25 -20  86]
 [ -3 -13 -14  -7 -26 -80  29   8  27 106 -16   7  13 -23  25  51]]
[[-10   6 -27  20 -62  47   6 -61 -29  35  11  14  -8  -2   5 -27]
 [ 25 -34  12 -10   2  15 -20   4  29 -11   7 -12  16 -21 -31 -80]
 [ 56  33 -21  27 -41  13  22 -48  -2 -11  24  17  -8 -27  28   4]
 [ 26  59  14  -4 -29  -1  14 -86  22  52 -28  21  -8   9 -18 -25]
 [-10  39  -9   3  36  62 -34 -11  31  56  -2 -15  12  -6  31 -42]]
[[-91  30  30 -13  29   5  -8  10   9 -50  11 -18 -22  14 -10 -16]
 [-26  16   0 -27  10  -5  -7  15 -18 -75 -25 -24  10   5 -18 -36]
 [-28  26   5   6  19 -57  16  18  27 -82  -5  -4  14  21  -3  -7]
 [-89  82 -11 -26  45 -61 -13 -12  17  13  21   5  -1   8   6  25]
 [-82  16   9 -25  79  38  -8  71  19 -80  16   5 -14  28   2 -57]]
[[ -6  29 -17 -31 -58  -5  36  25  24  13 -27  16 -18  12  14  24]
 [ 83  -2 -27  -4 -75  44 -15 -61 -24  -2 -10  -7  34  -9  10  66]
 [ 54  -1  18  19  15 -22  33 -43 -23 -44  34   8   4 -25  23  70]
 [ 32 -25 -21 -22  50  -4 -29  21 -13  72  -6 -10  26  21   8 104]
 [-11  45  13   7  -2  10  26   4  32  20 -29  -3  10  22 -22 -20]]
[[ 43 -45  22  16 -58   9 -34 -70   4  41   1  25  18   3 -11  11]
 [ 23  -4 -23   5 -10  37  20 -67 -10 -24   3  28  -1  -4 -18 -20]
 [ 59 -31   7 -31  -9  80 -11 -67  -7 -91  14   4  14  13 -22 -83]
 [  3   7 -24 -23   1 -48  -7 -33  13  40  10  22  24 -26  17  93]
 [ 19 -18  11  -2   1  -3  31  68  -6 -37  22  23  29  30  -5   4]]
[[ -51   -7  -33   -3  -22  -22  -33  -45   -2   24  -24   23   23   26
   -15  -33]
 [ -11  -17   20   12   68   83  -23  -45   -6  -80   12    3    6   26
     3  -41]
 [  27  -22   -7   22    3    3  -27   24  -26 -127   16   17   23   16
   -14  -83]
 [ -31   19   25   26  -52  -17    7  -56    8   98  -28    1   -2    5
    13   14]
 [ -28   31   -9   10   -2   31   14  -40   20  -62  -13  -19  -25  -29
   -13  -48]]
[[-27   3   2  27  30 -51 -30  42 -19 -21 -14 -21  16 -11  -3  82]
 [-45  31   8 -11 -10 -12  19 -24   7 -69 -29 -31  -7  15   3  23]
 [-20  40  -9  25  36  -1  16 -30 -10 -20 -20   0  32   6   2 -37]
 [-13   7 -10  29  24   7 -20  46 -18  21 -22 -13 -10  29  30 -11]
 [ 26  -5   8   5 -31 -39 -16  29  -7 -36   1 -26  24  32  16  35]]
[[ 59 -49 -15 -21  19 -18 -27  24  -7  48  -1 -14   4 -30 -21  64]
 [-34  12 -24 -27  61 -59 -15   1   0  11  21  19  -1 -11  33  30]
 [-18  21 -32 -10  23   2 -15  16  30 -11  11  25  25  -4   2  42]
 [ 38  -9  33 -21  -9 -22  -2  28 -11 -10   8  28 -11  25  -7  29]
 [ 38  -9 -11  -8 -75 -39 -30 -68 -26  52  31  33  22  33  24  31]]
[[ -9 -12  -4  -8  10  13 -22   3  14   4  25 -19  -1 -21  28 -45]
 [-22   0 -29 -10 -23  57  26 -14  30   7  -9  10   8  30 -24 -35]
 [ 56 -40  -7  13 -71 -69 -26 -28 -16  27 -15 -32 -20  16 -32  34]
 [ 14 -30  10  -8   0 -59 -13  14  -2 113 -17  20 -13   9  24  78]
 [-25   9 -29 -20  46  13 -21  14  16  20  22 -14  25 -35  -6  10]]
[[ 27 -21   3 -11 -28  20  -7   6 -27  -5 -21 -30  -8  10 -22   0]
 [ 86 -26  18  31 -67 -68 -35  34 -22  34  -5  23 -26 -29  -6  23]
 [ -2   8 -13 -22  14 -19 -14 -26  21  89   4 -30  11 -32 -35  -5]
 [-46  23 -22  15  27  10  18  -3  23  -6  13  28 -30   7  22  -1]
 [-34   5  20  30  14  13 -18   8 -28 -41 -11 -31  29   7 -25   8]]
[[ 11 -29  21 -29 -45 -13 -26 -52 -16 -32   5 -36 -28 -18  -4  19]
 [-46  51  29  19  45 -30   8 -56  31   3  24 -31  -7 -23 -29  52]
 [ 15  -3 -16 -18  -1 -76  22  56  11 -34   3  -4 -14 -14 -16  67]
 [ -4 -12 -12 -28 -47 -36 -15  15  30 -21  -1 -16 -23 -11  19  26]
 [ 14 -25 -11 -20 -17  49  -6 -24  20 -49  19   9   1  -1 -26 -33]]
[[ 24  -4 -23 -16  66  30   2  66 -14  23  -1   3 -30 -33 -32  -4]
 [ 62  23 -17  -4 -60  -2  32  33   9  18   0   7 -17  19   0  54]
 [  5 -13  22 -12 -25 -76 -24 -25  29 127  18  19 -34  -6  -5 118]
 [-90  -2  13 -35  77  14   0  23 -31  58 -16  -4 -10  -7 -31  -1]
 [-16  -3 -22 -32 -25 -16  -8  11  10 -85  -4  20  27 -24  -8  31]]
[[  18   15  -17   32  -30   26  -24  -14   -3  -25   21   27   21  -29
   -29   -6]
 [  49  -13    3   -3  -88   27   -5  -71    7   24    1   12   -6   12
    -7  -28]
 [  33  -75   19  -32  -22  -31  -29  -21  -21  105   16  -10  -34   23
   -35   29]
 [  49  -83   15    6  -66  -21   29    6   -4  -32    5   -1   32   16
     3   23]
 [  89  -33   25    7  -75 -112  -31  -52   25   86   13  -15   11  -29
    -6   78]]
[[  -3   18  -25    8   13    4   20  -11    0   25   -7  -10   36   -3
     7  -15]
 [ -37   -4  -30  -16   95  -22   22   29   21   51   21  -11   -5  -16
   -23  -57]
 [-105   22  -32   -6   76   31  -32   15  -21   17   30  -31   28   37
    35 -100]
 [ -36   41    5  -16   60   47   -6   30   20  -69  -13  -32   36   31
   -14 -119]
 [  13  -33  -28   20  -35   27  -17  -18  -10   54    9  -20   -6   41
    19  -17]]
[[ -20   21   14   15   54   28    1   -3   40  -10   39  -24    9  -32
   -13  -22]
 [ -17   -4   -8   26    8   33    9   21   -7   63   43   19   36  -25
    -6  -23]
 [ -36    4   42   -2   71    1  -29   98    2  -69    2   20    0    6
    -2    2]
 [  -6   27  -16  -19   45  -36   39   97  -16 -122   -6    1   27   29
    43   32]
 [ -24   41    3   -1    3   23   38   13   -5   14    9   17  -23  -22
    37   31]]
[[-20  20   4  22  -7  15  36  56  13  22 -19   4   8  15  27 -15]
 [-13 -30 -31  34  20 -10   1  71  20  46  18  19  -1  39  38 -19]
 [ 34  14 -20  23 -37  61 -25   4  38 -80  16  -3 -27 -12 -16 -40]
 [ -7 -46  36  34   0 -51  16   8  31  -1   9 -22  36  38  23  50]
 [-43  33  26  31  98  -8 -23  28   6   1  31  38  -8  11  40  19]]
[[  30   47  -28  -31  -25   20  -28  -58   17   81  -20   19   14   14
   -29  -52]
 [   6   16  -25  -22   17   93   -9   10   23   45   40   31   -4  -20
    -3 -113]
 [ 101  -41   22   20   -7  -25   -7   -3   38  -59  -11   14  -26  -10
    -2  -53]
 [  21    1   40  -31  -49  -30   -3 -103   33   49   -6    9  -20   38
    24  -48]
 [ -29   -6   40  -20   49   69    7  -14    4  -51   11   -9   -9   27
    34  -79]]
[[ -87    7  -30   31  127  -36  -34   48   37    6    2  -24  -31   43
     3  -18]
 [ -71  -11  -10   28   28   -9  -26   33  -25  -73   -4   17   23   27
    20 -102]
 [ -37  104   -1   36   29   65    3  -71   17  -54  -28   36   -7   32
     6  -75]
 [ -33   62   -9   22   66   73   37   56   -5  -64   10    5  -31    4
     4  -79]
 [  -8   -6  -23    4   40   25   35   83   41 -112   27   20  -14  -21
    29  -61]]
[[ 30 -18 -29 -18 -23  11  22 -10  -3 -34  14 -15  16   7 -17  24]
 [ -2  -1  10 -26 -37  15  -2 -32 -14  15  17 -28 -20  19 -23  83]
 [ 39 -51  16  15  -5 -21  25 -52  11 -21  22  26  13  18 -27  41]
 [ -1 -32  20  19   9 -17  -6 -38  12  20  11   9   0  11  25  66]
 [ 17  26 -23  13  47  24  13  14  26 -83 -23   3  -7   7 -15  34]]
[[ 48 -43  25 -28 -67 -42 -29 -42  20  44  16  -7  27  23   9   5]
 [ 89 -29   8   9 -84  11 -27 -75 -14  -7  22 -19  -7   5   0  42]
 [113 -57  16 -11 -66  28  21 -64 -29 -12   3   8  28   2   9 -24]
 [ 16 -45  12  -5  -6 -55  27  -9  -2  81   4  18 -14   8  12  79]
 [ 20 -48 -25  30 -58 -25 -24  24 -15  -8 -13 -24  18  16  28  11]]
[[ -31   29   19   -8  -71    1  -31  -65   13   32  -10   15  -31  -10
    26  -32]
 [  -4   36    4  -12   -8   94   21  -83    8  -48   24    2   25  -14
   -27 -127]
 [  19   33    1    9  -60   62   13  -27    9  -63    9  -16   19   -7
    -5  -81]
 [  -6    7    7   -2   10    3    6  -53  -12  102    8  -28  -20   -9
    -4  -68]
 [ -11   32    6   28  -44   53   -2  -82   -3  -25   30  -20   -3   22
   -22  -53]]
[[-51  -2 -16 -27  26 -46  11  46  31  -8 -17  -5 -32  -1  -4   3]
 [-55 -24 -10 -26  40  -2  17  41  25 -80 -33  19   4  26  18 -34]
 [-33   2 -10 -31  -7  28  21  -4 -24 -44  18  -7 -25  10 -27 -58]
 [-15  -6 -29 -20  39  48   9  34  29 -38   1  -2 -25  29 -22 -42]
 [-27  18  -8  10  26  23   6  14   4 -33 -14 -12  25  28 -16 -35]]
[[  7  -8  21 -10  46 -13   7  26 -12 -13 -22 -18  11   6 -15  24]
 [-16  33  28  -6  48 -24   0  44   1 -23  23  -9  15  -3  25  32]
 [-53 -10  18 -21  59 -11  27  32 -30 -32  20  -5  15   8  28  54]
 [-31 -12  27  17  -2 -47 -23  45  22  -8 -18 -11 -25  10  -7  70]
 [-24  38 -27 -14  18 -22  10  30 -26   1  -2 -22  17   1  11  13]]
[[-24  33 -16   1 -46 -20   2  -8 -15  36  14  18 -29 -26 -13 -43]
 [ 20  21  -4 -20 -40  61  26 -22 -15 -12  21  13   8 -20   5  -8]
 [ 75 -50 -19   3 -50  36  23  -3  12 -51 -26  20 -24  15  -4   0]
 [ -6 -18  13 -13 -22 -87  14 -16 -13 126 -15  20 -12  19  -1  73]
 [ -4   8   7   7   8  43   8  11  17  18 -24  19 -29  24 -10 -25]]
[[ -9 -10 -15   9  16   7  -8  -5 -11  -9 -19  20   5  -5   0 -32]
 [-31 -17  -2 -19   0  39  -9  15  12 -10 -24  23 -24   6  10 -54]
 [ 88 -29 -19  15 -82  17  14 -57  23 -46 -13 -21 -24  -4  -7 -63]
 [-15 -26 -25 -10  -1 -42  18 -38 -16 127   5  18   8   7 -16  62]
 [-30  30 -28   5  96  25  -2  62  24 -80  -4 -10   0  -4  14 -10]]
[[ -6  -8   1 -12  -2  17 -17 -22 -15  36  -5   4 -10   8 -29 -39]
 [-15 -17   7  -4  67   8 -16 -11  11 -56  -2 -17 -11  16  19 -19]
 [  2  -9  16  22 -70 -16  -4  -7  -9 -11   7 -24 -14 -10 -15  -2]
 [-14  11  19  -2 -38  28   8 -40   2  30   3   2  -1  -1 -27  -7]
 [ 39  16  21   6 -38  44   9 -32 -26 -70  10 -22  14   3   6 -37]]
[[-38  13  -1  -1  42   4  21  27  19 -15  -4 -27   2  -8  -1   8]
 [ 32  19 -17  -8   4   5  -2   7  -8 -51 -22  18  17 -18   6  33]
 [-71 -17 -28   1  23 -31 -11 -29  21  74 -11 -13  -7  -2 -16  65]
 [-33  29 -13  -1  61   0   6  31   4  24 -22 -21  20 -17 -24   8]
 [ -3 -29   4  15 -29 -23  -8  33  -3 -40 -12 -24   4  11  -1   8]]
[[  5 -34   6  26  -6  17  19  42   8 -11  14  -2 -13   4   6  11]
 [ 62 -33  20   8 -53 -31  -1  -5  -3  11  24  -3   5 -18  14  30]
 [ -7 -33  18  12   9 -12   8  41  -5  75 -13  10 -21  21  16  54]
 [ 15  -6   6 -18 -23  -8   9  20  22  16 -19 -18 -25  14 -14  20]
 [ 10  14  12  15 -28 -19  -6  -2   8  66  -1  20 -19  12  23  22]]
[[-21   0   8  -1 -25  17  23 -23   8  -2  25 -20  28  13 -10   2]
 [-19  -1  -7 -18  -5 -10  32  11 -19  14  24   6  -1  -6 -21 -12]
 [ -1  -4  17   7 -23  -5  28 -24  15  43  -3 -25  20  26  29 -53]
 [ 44 -26 -20 -21 -82  17   6 -54 -27   8 -23  21   0 -14  24  -4]
 [ 20 -26  15   1   4 -25  14  -9  19 -23 -13   2   1  12  26  20]]
[[-37  32  13   3  -9   7 -29  31 -19   2 -11  -4   4  18 -14 -45]
 [-18  33 -30  21  18  21  15 -28  22 -18 -10  -8  15  14  28 -14]
 [ 11  14  -6  18 -15 -12 -31  17 -10  23  13 -20   1  23 -24 -55]
 [ 36 -37   4 -23 -38 -19   0 -40 -19  91  26  -1  13  19   9   2]
 [ 18 -44   9  25  -9  56  16 -71 -24 -22 -24   7  -1  23  -7 -16]]
[[-53  14  15  21  48  29  22  57  11   9  -7  14 -10 -11   8  23]
 [-11  -7  29   8 -48   6 -21   2  -2  13  10  -5  22   3  30 -17]
 [-18  -9  21  18  22   8 -11 -32  31  92   8  -6  22  27   0  18]
 [-14   9 -25  14  97  48 -20  25   4 -89  -5 -27  10 -12 -17 -86]
 [ -6  -7 -14   4 -37  20   3  -3 -10 -53  -2 -19  29 -20 -15  -6]]
[[ -27    9   -9  -13   45  -16   23   15  -15   -2  -23  -26   30   17
    -8   24]
 [ -52   -9  -27  -25   53  -38   22    8  -12   12   21   17  -28  -22
     2   45]
 [ -63  -19  -10   28   53   -9  -23   17   28    7    7   17   -5   27
     1   52]
 [  39   14   26  -19    2   28    3   54   14 -127   19   -9   22    7
   -21   16]
 [  55   18   20  -18  -27  -59    8  -24   -4   53    5   32   -9  -32
   -20   78]]
[[ 32   4 -13  15 -74  43  22 -11  -2  16 -21  30 -15  12 -22  30]
 [ 89 -54   4   6 -20  12   2  27 -24  34  15  11  30   1  30  80]
 [ 81 -66  14   7 -30 -70 -10  34 -27  94   2  14  21  11  -1  75]
 [ 41  -6   7 -13 -59 -59  23 -28 -30  77   6 -16 -24   8  -6  33]
 [  8  -8  13   4  10  29 -11 -75  16  21  -4  -7   1 -27  22 -39]]
[[ 21 -18   8 -22 -24  -9 -18  10 -30  -6  11  -9 -16  -1  -7  10]
 [ 45  18  21  -8 -32 -18  11 -32  23   9  36 -33  27   5   7  49]
 [ 56   7 -26   9 -31 -47  14 -24  -6  39   7  24  27 -20   6 120]
 [ 11 -30 -15 -23   8 -55  26 -52  22  71  -2  20  34  30  15  84]
 [-33   3   9  15  33  58 -20 -16  29 -60   7  37   8  27  28 -37]]
[[ 101  -64   11  -30 -118    4   -5  -23  -10  -18  -31  -20   27  -18
   -16    4]
 [ 127  -69  -12  -15 -115    4   27  -66   32   14   30  -10   26   32
    10   23]
 [  69  -39  -13   -8  -16  -20  -17  -52  -20   13   20  -32   38   24
   -26   -1]
 [  50  -27   33    6   -8  -35  -10  -52   -5   68  -17  -14   17   -4
   -12   87]
 [  51  -66   33   36   -4   19  -32   37   13  -68   30   35   18    4
   -23   -3]]
[[ -31   36  -24  -14  -38   13    0 -114   -9    9   25   34  -12  -25
   -12  -56]
 [ -69   42   18   -4   36   55  -18  -46   34  -30  -26   30  -27   11
   -35 -114]
 [ -40  -10  -12   -6   22   39   23   13   20 -125  -21    1   27  -21
    36  -54]
 [ -27   12    3  -19  -19   18  -27  -28  -15   42  -33  -27  -33   -4
   -24  -16]
 [  23   -6  -29   -7  -47   -6   29  -66    1   15   30  -11    2   14
    35  -32]]
[[ -60   32    1   -3   80   10  -14   62   23  -16   13   30  -19   -2
   -17   50]
 [ -33    7    4   29    7  -10   15   93   30 -101   -7   35  -10   14
   -16   12]
 [ -26   -2   20  -26   35  -45   26   30  -28   68  -11  -32    7   -3
   -10   90]
 [ -67   -4   35   -9   65   33   26   42   23  111   34   -4    4    1
    31   18]
 [  31   15  -32  -20   -7    8  -14   28   18    4   36   20  -21  -20
    22    9]]
[[  6 -22  36  17 -39   4  33  50   1 -41 -26 -21   5 -22  -6   2]
 [ 32 -25  -2  13 -29 -15 -20 -31 -36 -33  -1  10  28  29 -31  79]
 [ 14 -41 -25 -28  49 -16  14   2  29  56  -5 -23  12  -1  32 104]
 [ 11 -45 -21 -12  -1 -44  -1  27 -12 103  32 -14   2  17  24  90]
 [ -2 -31   5 -10 -17 -35  32 -70 -12  90  23 -29   5  24 -17  -1]]
[[-12  25 -11  10 -42  14  30 -15 -29 -17  15 -13  -3 -16 -25 -16]
 [ 10  21  20 -34 -35  24 -28 -68  19 -26   2  -9  23  17  29  34]
 [ 43 -39 -24 -11 -89  15  -5 -66   1 -15   3  12  31   2  31  38]
 [  7  -3  22   6 -25 -25 -31 -43   5  70  31  23 -13   8  12  83]
 [-16  36  25  16  15  58  26  -2  19 -38   3 -32  22  29  -6  28]]
[[-18 -33   0   6 -28 -33   7 -35  18  36  29 -26  -5  30   9 -13]
 [  0   2 -13  29  -4  22 -10 -77 -20 -34 -20  -7 -26  28  -4   4]
 [ 55   1 -35  12 -52  19 -29 -41  30 -32 -34  10 -13 -31  10 -58]
 [ 34 -79  15  -3 -38  -8  27 -49 -26 127  17 -19 -11 -23  -7  63]
 [ 73 -40 -24 -11  14  14   9   2 -19 -87 -22  30   3  27 -24 -12]]
[[-11  29 -14  12  29  12 -24 -22   7   6   6 -18   6 -32   6 -28]
 [  5  14  19 -16  27  59  14 -40 -15 -58 -30  19  24 -14 -20 -79]
 [ 18  -3  -1 -21 -60  26  10 -13  15 -11  -8 -32 -18  19  11 -49]
 [-30  15 -36  31   7  -2  -8 -59   5  90 -11   0 -23 -16 -32 -66]
 [  2  22 -34 -21 -44  33 -13 -49  18 -80 -21  15 -25  14   9 -86]]
[[  8 -46  26 -30  86 -86 -24   7  -6 -49 -20   6  20  31   7  97]
 [-54  -2 -14  20  32 -91 -16  28 -32 -70 -31 -26   9   8 -22  78]
 [-65  -8  26  11  37  -9 -34 -25  31  24 -12 -19  10   8 -34   1]
 [-15   6  30   7  54  13  22  44 -11 -69  20 -16  14  -8 -24 -15]
 [  4  -3  11 -30  -4 -30 -16  15 -32 -21 -12  26 -20   8   4  78]]
[[ 94 -10  -9   0 -38 -11  39 -19  25  18  17 -31  12  19 -24  59]
 [  7 -29 -27  31  54 -22  12  37  -7  36  31 -32 -35 -38  11  72]
 [-26 -51  10  -6   9  -8  -8  28 -30  34 -10 -29  24  -5   8  77]
 [ 53  12  12   1 -26 -13 -15  10  -4  18  13  12  15 -24  22  58]
 [ 21   8 -13 -19 -53 -27 -15 -84 -14  24 -31 -26  -1  10  23   4]]
[[ 31  18  20  24 -66  -4  11 -15  -8  -8 -18   6  16   0 -12 -14]
 [ 83  23  16   0 -83  23  25 -73 -21   7 -10  -2   4 -14 -15   8]
 [ 51  -7  17  -6 -24  19  19 -41 -16 -37  -3   1   2  24  20  12]
 [ 20  13 -20   4  26 -14  -7   2  17  37 -12 -16 -19  12  20  13]
 [-19  11 -11 -20   7  41 -21  -6 -22  53  -9 -18  -6 -21 -22 -46]]
[[ -51   -1  -18   23    9  -17  -23  -35    4    5   -7    6    5   -9
     4  -18]
 [ -73   43    3    0   82  106   -5  -44  -15  -62  -13   17  -12  -15
    -2  -57]
 [ -23  -11   22  -22  -16   55   -8   -1  -20 -127   16  -13    1   16
     2  -44]
 [ -20  -30  -18   22   -1  -44  -15   19   20   11  -21   15   23   -7
   -12   95]
 [ -74   25   16   13   47    5  -10   78  -10  -61    9   18  -21   -9
    13   24]]
[[ -6  12 -12   3  64   4  -1  29 -11  25 -10 -17 -12  17 -11  19]
 [ 35 -43  12  11  -1  30   2  64  15 -86  -6   2   4   5   4 -15]
 [ 89 -46   1   2 -63   5 -19  18 -18 -35  -4 -21   9   4 -15  34]
 [ 19 -16 -14 -11  -9 -47 -11  -3 -11  77 -14  17  -7  18 -15  72]
 [-13  12   8 -13  26 -36   7  53   8 -37  21 -15 -23  -5  22  53]]
[[ -7  -2  19 -13 -17 -51 -12  -9   5   7  18  -6  18 -23 -23  50]
 [ -3  -4   2  18 -18 -17 -18 -29   3 -28  16   0  -6 -19 -11 -27]
 [-21  23   8  12  -5  81 -19 -44 -11 -20  13 -13  17  14 -23 -32]
 [ 49 -30 -13   3  12  24  -4 -19  11 -28 -19  15 -17   9  14  37]
 [ 36 -32  19  16 -36 -69   2 -24  12  59 -13  13  23  -6 -17  69]]
[[ 45 -44  23   5  -9 -50  21  11   8   3   5  -7 -10   8 -12  20]
 [-54 -20  -8 -23   0 -44  12  22  -9  28   2   5 -21 -22  24  44]
 [ 36  -2   3   9 -42  53  25  16  10  11 -22  -5  -4  23  17 -62]
 [ 75  18  -2 -21 -27   7  -4 -42   7  19  14  -4  17 -24  16 -12]
 [ 21  17   4  -6 -36 -24  -4 -50  20  48 -20  16  -8  23  -8  12]]
[[ 29   1  -8  -3 -43  16  -4   9  22 -19   6 -24  19   6  -6 -10]
 [  1 -19 -28  -6  27  35 -26 -42  10  17  10 -15 -25  23 -22 -28]
 [ -5 -25  14  16  51  36  15 -16 -26   2  10  25  -7  25 -12  -7]
 [-23  -6 -20  12  22   3 -21  29  15   7  25   3  -1 -14  28 -20]
 [  7  33  22 -18 -14  27 -18   5 -25  16  11 -28 -25   2  25 -84]]
[[   7   14  -25   17   38   28   -8  -28   -6   12   10   16   -6   11
   -16    3]
 [ -12   -5    6  -14  -25   -3  -25   21   -9   20  -25  -27   -9   10
     1  -19]
 [  33  -27  -23    5   -4   48  -29    6  -10   22    2  -28  -19   22
    17  -23]
 [ -49   38  -23   23   49   18   18   54  -11 -107   -9  -14    3  -17
   -10  -14]
 [-111   36   15  -23   75    2  -23   82  -10  -20  -15   27   -2    1
   -14   24]]
[[ 46 -36  15  15   2 -23   3  12  25 -36 -20   7 -16 -23   9  32]
 [-63  -3 -22  28  37 -28   9  29  28  56 -27  20 -26 -19   7  66]
 [-56  32 -11  -4   8  27  11   2  -7 -29 -16  -2 -29 -11  14 -51]
 [ 18   5 -13  17 -41  15 -24  37   0 -67 -24   7  -8 -22  18  -2]
 [ 21  -6  21 -19  44   0  23  52  11  -9 -18  13  18  13 -10  61]]
[[ 25 -20  17 -12 -54   7  -2  -8  17  33   3 -18  -1 -24   6 -46]
 [ 71 -46 -22 -29   5  -1  23  27  22  31 -12  -1 -13 -12  -4 -22]
 [ 60 -28  13  29 -13 -30  -2  16  22 -15  21   1 -18  12  -8 -12]
 [ 12 -33  19 -23 -31  13   5 -43 -23  59  23   1   0 -27   6  15]
 [ 13 -18  26  27  19  37  -1 -12 -20 -67   8  25   5  16 -21 -33]]
[[ -68  -23   10    8   -1    0  -28   28   -2   32  -25  -14   19   -3
    23    5]
 [ -60   33   16   15  -72   37  -29  -13   -6   32  -25   25   10  -27
     5 -109]
 [ -70   39  -21    6    9   70  -24  -38   14   11  -15   -3   19   -9
     3 -127]
 [  -8   26  -17  -24   20   86  -29  -31    0  -59  -12   -7   23   28
     9  -99]
 [  43  -37   -3   -7  -37  -32   17  -13   23  -14  -17   16  -27   -3
   -16  -16]]
[[ 14  26  -4  -2 -54  -8   7 -19  22  18 -12   2  20  26   5 -29]
 [ 40 -23  29  13 -57  53 -18 -29  20  17 -14 -16 -10  -6   8  30]
 [ 77 -16  32 -11 -19  37  -8 -10   1 -34  12  -3  24 -26 -26  30]
 [ 31 -41  21   0  45 -61 -27  -8 -21  72  24   1 -23  27  20 127]
 [-25  23   6 -26  35 -30   8  31  16  16   1  22  -1 -27 -29  24]]
[[   2   -4   -6   11  -68  -15  -30    2   -7   -2  -21    2   22   -6
   -23  -15]
 [ -10   12   -1   21  -34   66   -3  -43  -14    5   -4   -1   25   31
   -22  -32]
 [  46  -13  -13   27  -72   62   11  -62   10  -91   15   -2   22    4
   -17 -108]
 [  28    5    0   13  -67   11   -7  -56   30  102  -22  -19   19    9
   -17   49]
 [  33  -39  -20  -18   -5  -34   20   30    6    0    3   21    3    0
   -11   52]]
[[-28  21   5  15   0   0   5 -20   2   1 -25  23  27 -10   3   6]
 [ -3 -18  12 -28   7  39 -31  26 -21 -56 -11  18  -5  22 -18 -77]
 [ 21 -33 -30  22 -49 -17 -13 -11  -9 -55  -1  -5  20  12  23 -38]
 [-28  47  -3  10 -53  -9  -5 -59  16  60  25  -1   6 -10 -14 -66]
 [ 26 -18  25  11 -25  17   7 -23  31 -56 -10  -2   1  20  28 -31]]
[[-43  -8   7 -13  74 -38 -20  25  29 -36   1 -19 -11 -26  22  34]
 [-44  11  19 -21  30 -40  -8  39 -27 -43 -30  15 -27  28  15  63]
 [-83  26  -9   5  47 -18  25 -22  31  43 -12  28 -11  23 -12  42]
 [-37  -1   9  20  49  23  -6  40   6 -36 -20  20 -29  -3  14 -20]
 [ -8 -15   9  18 -33 -35  11   5  -2 -54  16 -30  24  29  -1  -4]]
[[ 53 -49  19  30 -42  15 -19   4 -14 -22  25  31 -15  18  25  22]
 [  1   1  10  -3  43 -53 -14  30  22  48   3 -11 -13 -29  -9 102]
 [ 25 -62 -20  11  41 -19  30  30  31  56  19 -23  -7  -1   2  93]
 [ 21 -24 -17  15   0 -24   7  -8  23  19  29 -21 -13 -14 -20  55]
 [ 52   9  31   2 -45 -28 -24 -56  -4  59 -19 -20   1   7 -29  -2]]
[[ -4 -13  18   5 -14  -1 -13 -20  24  16 -13  15  21 -12  17 -33]
 [-46  -4  15  -8  58  18 -19   1 -22  23  -9  24 -10  22   6 -17]
 [-57 -17  17  25  46  67  -9  53  14  -6  11  28 -12 -27 -13 -70]
 [-38  35 -16   5 -27  -2 -29 -29 -23  53 -12  11 -22   3 -22 -12]
 [ 37   1   4 -25 -47  74  11 -23  24   3  24 -10 -15   0 -20 -71]]
[[-49  21   5  -2  68 -35 -21  49  -9  21   3  17  -3  20  17  13]
 [-20  26  14  27  65   3 -14  34 -22 -33  17 -14 -23  18  21  11]
 [ 31 -56  13 -20 -36 -32 -25  29   7  18 -20 -21   4 -11 -19  32]
 [-33 -67 -27 -19  47 -26 -19  -4   8 106 -23 -25 -17 -10   0  93]
 [-32  19  -9  18  45  66  21 -25   3 -66  13 -16 -21   4 -22 -69]]
[[ 43 -34  -1 -15  31 -16  -3  76   6  20  -8 -23  19 -15  10  16]
 [ 57  38  17  -6 -69 -29  -5  30  16  33  11  -7   5 -26  20 -65]
 [ 61  13 -15  18 -41  33   5 -88  -7 101  -6  -9 -23   9  22 -47]
 [ 50  22  -2 -22  73  54 -18 -46   6  -2  16 -20  -4 -17   8 -30]
 [  3  25  24   5  30 -27  19  51  19 -49  14   4  10  12   9  14]]
[[ -35   15   -1    4  -12    6    2  -83   16   19  -17  -16  -21   -2
   -16  -49]
 [ -53   12   25  -16   72   36   24    6    3  -40   -8  -25  -15  -12
    22  -59]
 [ -97   30    6  -25   58   -6   -9   13   23  -99    3  -25   24  -21
   -10  -72]
 [ -37    0   -8   16  -24    6  -11   -2  -21 -127  -11   20  -15    0
   -27  -77]
 [ -13   60  -21    2   -8   11  -29   10   26  -27  -27   25    4   23
    19  -57]]
[[-35 -10 -22  24  40  18  -8  30  11 -29   4 -20  -4  11  24  33]
 [ 44  -7  -8  25  33  13 -20   1 -14 -88  -2   2  10  20  -5   3]
 [ 47 -21  18  -7  29 -58  -4  32  -1 -56  24  15   7  -2  15  26]
 [-33  -2  18  21  57 -37  10  14   1  20  -3 -14  -4  22  24   6]
 [-57  60  -9  -9  87  67  17   4 -17 -75 -20 -26  -5  -5 -10 -68]]
[[ 45 -22   2   3  -9 -27 -15  35   4 -60  11 -19  23 -11   8  32]
 [ 61 -35  -8 -22 -51 -91   8 -30 -22 -33   2  -7 -20 -19  15  55]
 [ 44 -13 -26 -16 -13 -68 -19 -54 -24  58  -2  21   7 -17  24  75]
 [ 13 -26 -27 -17  29  23  21   2 -13 -34  22 -26 -26   3 -27 -14]
 [ -9  24  -2  10  27 -23  -9  29 -24  29  -5 -11  -1  17 -18  23]]
[[  66  -33  -12   17  -99   -9   13  -53  -10  -51  -11  -17  -18   -5
   -23  -11]
 [  -4   -8   10  -10  -44  -34   19  -60  -23    5  -20   -8  -25   21
    -6   46]
 [ -62   38  -19   15    7   13   23  -55   -1   16   -3    2   15  -18
    -8   15]
 [  18   44   10    3   27   36   -6  -19    4 -109    0  -20  -22  -19
     3  -58]
 [ -18    4  -15  -28   24  -64  -16   43  -25   38   -7   10   -1  -10
     7   45]]
[[-13 -22  11 -15 -28   8  16 -31 -19 -34 -13   6  21  19  -1  12]
 [  0 -49  12 -15  33 -42  -7  40 -28  -6   8 -24   1 -13   6  58]
 [-62 -18  20 -26  27 -47  -1  43   4 -13 -18  -5  19  19 -10  75]
 [ 40 -24 -18 -20 -30  18   1  32 -28 -85   4 -17 -10 -24  -8  -3]
 [ -5 -58 -18  22  11 -52  10   1 -15  11  11 -16  19   1  10 117]]
[[ 33  -8 -14   6 -47 -10 -20 -13   1  -4 -17   9  -8 -19  23  14]
 [  9 -20   4 -14 -23  -1 -11 -61   5  63  17 -23  -1  -6 -13  55]
 [-12 -13   5 -10  -5  42 -24  17   9  35   7  14  -9 -16  -4  25]
 [ 54 -70  25 -23 -53   5  15   7 -10 -19  19   0   9 -20   2  86]
 [ 30 -69  -3   6 -38 -88  -9 -66  -8 117  19  16  16 -18 -22 112]]
[[-24  23  -8 -17  -1 -24 -25 -17   7   5   8   6  22  -7  20  12]
 [ -6  -7 -11  -9 -18  23  -5  -5 -23  12  20  22  -3 -22 -18 -37]
 [ 14 -37 -12   0 -36  40  23 -20  20  27  -9  17  17   3   2 -28]
 [ 53 -42 -11   9 -97  -7  23 -51 -10  27 -13  10  21 -19   9   4]
 [ 43 -37 -19 -10 -71 -11 -11 -51  22 127   4 -11  -3 -25  10  36]]
[[ -28    0  -16   17   11  -26  -24  -11   -4   -6    5  -13   15  -12
    -8  -11]
 [ -38   25   12  -16   -6  -29   19    6   18   53  -24   16  -18   15
    19   17]
 [ -66   72  -10   16   28    6   16   30   29   29    8  -11   -4   24
   -11  -79]
 [ -23   48   31  -25  -65   12   17   13   17   20    5   -8   11   23
    -5 -127]
 [   0   16   26    9  -45   94   -4  -80  -13  -25  -14  -19   -6   15
   -10  -84]]
[[-24  -4 -13 -10  29  -8  14  30   7  12  -3  17  -1 -21 -18  -7]
 [ -7  56   5   3  30  -1  17  28  13  17  33 -15  17   4  28  -7]
 [ -4  -4  14  14   6  33 -26  64 -19 -25  24 -13 -23   8  -8  -6]
 [-33 -45  33  -7  68 -68 -24  27  31  22  26  14 -10  -5 -15  72]
 [-27   0  26  19  82  50  33  -1 -10 -81  30  26 -26   5   0 -38]]
[[  30  -31   -8  -20  -16  -43   31   44   -3   18    5    0  -26   30
    -6   -2]
 [ -38   49  -25  -14  -18    0  -17   43  -18   80    4    7    3   -1
    -7  -17]
 [  27   64  -18   30  -11   76   22  -46    1   -3   19  -19   27   20
   -24 -107]
 [  14  -40  -14   -2   66   38   -6  -24   33   10   15   -5   -1    6
    -4   20]
 [  53  -13    1   23   49  -65   -5   92  -16  -24   20   19    7   23
    12   33]]
[[  23   42   -3  -14  -14   46   14  -28    6    9   -3  -19   -5   10
    11  -47]
 [ -42  -14   16  -26  107   28  -14    1  -19  -59  -26   19  -15   28
    -2  -27]
 [ -45  -32   27   -4   47  -23    8   38   17 -116   29    5    0   -3
    -3   19]
 [  47  -34  -11  -18  -62    7   29    2   13  -61  -13   -6    1   -4
    15   22]
 [  13    9    3   -9  -72   35  -22  -43    0   45   21    2   19   17
     8  -28]]
[[-15  -9 -13 -11  59   0   6  30  -3  -7 -22   9  17  25  14 -19]
 [ 28 -16  13  -8  -7  10 -19  -2 -11 -84 -13  20  32  -8  32 -52]
 [ 86  15  20 -23 -35   5  30 -13   7 -12  32 -23  -8 -13  -5  -1]
 [ 14 -19  14  -4   7 -20  10 -22   0  25  22  12   2  -8 -27 -19]
 [-42  15 -14  13  76  70 -21  -1   0 -35  -6 -25 -22 -10   8 -35]]
[[  7 -15 -13  24  60  33   7  28 -13 -23  16  15 -12 -27   7 -24]
 [-14 -25  -2 -13  -3 -14   7  38 -16  17 -32 -13 -24 -16  16 -11]
 [  3  23  19   6 -26 -27  -3 -24  11  60   5 -12   5   4  17  -3]
 [  5  24   2 -14 -45   1  22 -37 -23 -18  27  -1 -20  11 -25 -15]
 [ 43 -21 -31  -1  18 -65 -15  -3  10   0 -13  -7  18 -20  26  27]]
[[-10 -16  -4 -12 -25  33 -17  33  19 -19 -32 -31 -20 -14  -5  19]
 [ 17  23 -32 -15 -12 -52  -7  27 -20  16  24   3 -13  10  -8  31]
 [-85  23 -18 -30  -3 -52 -24 -36  14 127   4  20 -22 -14 -17 -19]
 [-11  34 -17  18  -4  30  16 -72 -12 -15 -25 -17 -28  -4 -32 -96]
 [ 92 -65 -29 -19 -31 -12  14 -61   5  56  21 -10   2 -14  26  -1]]
[[-37 -35  18 -19  -5 -15  24  -3  -4 -10  -3  23  12   2 -32  32]
 [-39   8 -26  13  44 -75 -17  11  10  16  -2  21   7   7  18  45]
 [-82  43  -6 -20  84 -78 -28  62   0  33  -1  26  18   7 -23  22]
 [-58  28  16 -27  33  -4  13  31  -2 -69 -21  16   0   1 -30 -46]
 [ 22 -15   7 -19 -70  52  26 -12  21   1  -1  23 -30 -16 -19 -61]]
[[ 32 -22 -22 -12  27  -4 -24   5 -27 -17  13 -11 -18   8  24  -6]
 [ 32 -28  18  -2  -6 -75 -18  -7 -13  68 -20  23 -16  -7  10  88]
 [-12  10  24 -10   6 -13 -17  51   8  74  14  -7 -25 -29 -25  80]
 [-24  19  -7   4  49 -22  -6  59  24 -34 -24  -6  16  24  19  -4]
 [ -3   2   7  20  25   2 -10  -5 -29 -41  -6  15  -1 -28  -7  21]]
[[ 19   7   9 -30 -53  25 -20 -68   1  -4  14   8 -30 -30 -13 -49]
 [ 70 -26  -2 -32   1  34 -11 -16  24  33 -22  25 -12  18  -3  22]
 [ -5 -81 -24  24 -11 -23  23  -9  -7  48  11 -29 -17   3  21  79]
 [ 27 -57 -13 -19 -53 -11  -3   6  23 -14 -17  -2  16  23 -24  51]
 [ 50 -73  -7  13 -67 -32 -11  18 -22  50 -15  13   3  10   5  41]]
[[ -7  -9 -26  15 -17  37   7  -7 -23  36  31 -16  20 -11  -6   3]
 [-10  18 -17 -11  -2  43   8  22 -18  17  28  14 -35 -13 -18 -51]
 [ -4  21 -24  12 -14  12  -5 -22  -8  40 -14  32 -16  25  -1   1]
 [ 23 -35   6 -13 -34 -56  -8 -33  17  38 -13  31  12   3 -32  70]
 [ 10  19   8  -8  36  -9  -4  18 -17  51   8  18  22  10  28 -26]]
[[-71  52 -30 -29 112  36 -13  27 -35 -50 -13  31   9 -21   4  -8]
 [-61  67 -22 -15  38   4 -23  58 -18 -27  12  -9   6  15 -26   7]
 [-36  29  19  -7 -26 -28   7 -21  20  71  29 -22   3  -8  16 -41]
 [ 27  29   6  16  18  33   5 -37  26  26 -24 -31 -24 -28  15 -25]
 [-42 -32  -4 -38  75  35   8  27  12 -49  -5  17 -14  -1 -36 -18]]
[[  32  -16  -30   -2   91  -41    4   78  -21  -22   26  -29    4  -23
   -22   14]
 [  34    6  -13  -25   15 -118   31   81   11   37    9    4  -34   -8
    -2  100]
 [ -95    6  -17  -17  -12  -58   -9    7   27   95   -5    0  -29   28
   -23   86]
 [  21    5  -10   22   11   38  -19   -5    6 -116    8    5  -21   35
   -16  -62]
 [  40  -19  -28   28  -27   23  -28   37   -7  -32  -25   -5   29   14
    -3   43]]
[[  73  -10   10    1  -57   17   -8  -44   22    6  -23  -26   27  -37
   -29   11]
 [  10   -2    1    9   13  -80  -28  -12   -3   87    2    2  -19  -26
    -7   98]
 [ -94    6  -14    7   52  -27    7   55    0  111   29   -5   16  -16
    32  113]
 [   2  -11    1  -21  -43   20  -24   32   -6 -127   28   32  -28   28
     6   39]
 [ -19   36   17  -34  -29  -51  -28  -52    5   45   -6  -16   18  -37
   -35   50]]
[[ 35  19 -30   3 -62  49 -28 -41  -4  -2  15  17  36  19 -36 -39]
 [ 60 -60   0 -22  -8  24  33 -13  11  30  -2  33   8 -38  21  63]
 [ 66 -82   3 -30 -47 -47  13  39 -22 125  34 -28  -5 -17  24  75]
 [ 38 -44 -28  31 -42 -23 -13 -33 -26  32  29  32  33 -16 -12 -34]
 [ 24 -28   6  10  12  -1 -13 -44 -34  47  -6   6  18 -25  -4  -5]]
[[ 10 -37  29  36  29  23 -13  37  -7  38  28  24 -34  43 -28  27]
 [-75 -40  30 -32  47  -5 -31  42  -8   4 -36 -22 -17  13   5 -25]
 [-84  39  17 -23  97  20   1  38  42  22 -28 -36   9 -25  34 -45]
 [-56  41  -2  17  28  53  19  30 -24 -81  -6  12  37 -19 -15 -93]
 [ -5  -4   1   3 -54  -1  12 -18  35  13  11  -9  16 -32 -32  -5]]
[[ -47   -4   37  -31   37   17   49   44    0  -54   21  -12    6   16
    -6   -4]
 [  -7   92   33  -19   36  -54   16    9  -21   25  -13  -38  -10  -36
    14   21]
 [ -58    3    2  -17   53  -56   -8   72   34   16  -29    3   15   31
    41   85]
 [  70  -21   15   25    3   -2   -5   47   31 -113    1  -33  -26   -9
     8  -75]
 [ -31   47   38  -10   10  -20   14  -14   24   71  -32   10   31   26
    40   -4]]
[[   5  -62    3   -1   57   -5  -17   76   34    5    8  -17  -34  -24
    31   40]
 [  82  -21   19   13  -98 -114   20   57   -9  123  -32  -14  -11    0
    36   85]
 [ -84   13    6   -6   31   43   11  -45    8   91   28   -9   34   44
   -34   30]
 [  43   34   11   11   13    7   38   22   39 -127  -17   -8  -23   32
    35  -81]
 [  20  -29  -35    3   49  -37   20   25   -9   46   22  -17   42   -2
   -12   55]]
[[  72   57    0   44 -107   73  -35  -58  -11  -23    9   37   -8    1
   -25  -51]
 [  25    9   37  -14   36  -22  -34  -13    9   58   14   34   -8   13
    17  -18]
 [   4  -11   39    6   31   41    1   54   23  -78   43   29   22  -30
    -9  -59]
 [  48  -19  -18    7 -108    7  -36  -57  -15 -109  -18    0  -23  -30
    28  -69]
 [ -45   21   34   14  -13   20   26  -22  -33   50  -16   24  -21  -17
   -24  -69]]
[[ -89   -9   -3   33   29   47   -5  -24    0    6   28    5   34  -29
   -22  -29]
 [ -50   30   33   22   43   66   -3   23    1  -43   32   11  -27    4
    19  -39]
 [ -27   76    1  -22  -44  -11   43  -49   -5 -121  -35   42   30   42
    -8  -65]
 [ -59   19   38  -13   55  -26   15  -31   28  -49   26  -14   -1  -23
     4  -52]
 [ -72   47   32   25   67   19  -16   47   29 -112  -14    0   38  -25
     5  -17]]
[[-38 -24 -11 -29   1  -4  13 -24   6 -17 -21  11 -23 -21   8  14]
 [ 19   0   2  28 -17 -60 -23  -1  19  24 -18  17  -2  19 -27  18]
 [ -2  16 -32  12 -55 -18 -29  -8  27  75 -14  22 -29 -31   8 -35]
 [ 41  -2 -21  12 -62  56   5 -30   0  -6  10  -2 -21 -19  13 -55]
 [ 25   5 -26  -8   6  -5  19 -16 -18   5 -27  -1   4  -7  20 -24]]
[[ 26 -28   5  17 -41  39  -2 -14  10   1  26  16  -1 -15 -16  11]
 [ -1 -47   4 -28  -1 -42  20  20 -17  30 -11  18  21  -8 -18  13]
 [-66  40 -19   4  80 -54  25  22   6  56  26 -15 -11  23 -21  54]
 [-90  19 -17  26  30  47  12   2  12 -74 -20 -25  22  27  -7 -36]
 [ 13 -30  26  -2  20  26 -21 -12   0 -63  25  -6  -5  10 -19   4]]
[[  9  35  -7  12  -4  18   4 -43 -23 -35 -28  -9  17  13   6  -2]
 [-20  21  23  21  34  13 -26 -21 -25 -19  -1   2  -5  24   0  45]
 [-25  -8  18  -6  50 -60  22  52 -30 -53  22   1 -31   1 -13  73]
 [  6 -21 -26 -12   2  -7  29  45  28 -19  19  -2 -11  23  -1  49]
 [ 66 -57  25  17   9  -5 -19  33 -24  12 -13 -22  24  11  18  26]]
[[-21  -3   4 -22  51  17   4  32 -21 -32   0  28 -27  16  13 -38]
 [ 47   5   8 -30  -6  -6   2  70 -25 -25  20  14   3  -1 -11  63]
 [ 52 -24   6  22   2 -99 -25  19  -1 127   8 -28  27 -25  15 121]
 [-56 -31  22 -27 -10 -52  12  20  -7 113   2 -14  27  11  23  83]
 [ 14 -24  14 -24 -24 -42  13 -49 -25 -18 -13 -17 -19 -22 -13  44]]
[[-22  57   0  29 -40  16  -6 -42  29 -30  -1  -1  25  25 -21 -61]
 [ 90 -29  21   6 -92  79 -27 -88  13 -11 -11 -15  20 -16  23 -31]
 [ 76 -93   1  21 -32 -29  -6 -61 -13 114 -29  22  13   4 -10  33]
 [ 54 -58  -6  -5 -43 -61  18  36 -26  94  16 -16 -22  22  14  12]
 [ 54 -32  28   5 -54 -18 -23 -30 -27  81   7 -26  -2   9   2  12]]
[[ -41   11   11   12   19   21   23   16  -24  -20   17   26   -2   13
    13  -13]
 [  -7   15   19   14  -32  -24   -9   30   -7   13   14  -18  -10   -5
    10    9]
 [  48  -15   22    9 -104  -43  -14  -41   -9   48  -17  -22  -21   -9
    10   40]
 [  36  -13   23  -19  -41   13    2  -69   -4    8  -13   26   -7   -3
     0   -4]
 [   7  -34   -4   22    6    2   13  -37  -21    9  -28   -9   -5   18
    12   45]]
[[ 33  -8  14   3 -23  10  13  30 -25 -35  -8  16   2  22 -27 -38]
 [ 59 -33  15  -4 -50 -19 -22  -8  17  30  10  21  15 -18 -26 -15]
 [-69  17  25 -23  33 -45   1 -15   4 114 -30  -7   2 -23  11  21]
 [-23  31 -27  12  -6  55 -13 -54  10  28 -24  -8 -27 -12   0 -80]
 [ 77 -69 -25 -20 -80  12  12 -50  14  15   9   7   9 -16  -9 -42]]
[[-10 -19  -5  21  -5 -10  12 -64   6 -37 -12 -22 -12  10  -6  12]
 [-48  30 -25 -25  18 -26  21 -59   2  11  -4  17  22  -5 -29  28]
 [-39  18 -24  -7  25 -60 -30  10  11  23  20 -18  10  24 -18  61]
 [-51  10   2 -16  -1  12 -26  50   4  -2 -27  15  -5  11  -4  -2]
 [ -2 -31 -29 -22 -36  41 -13 -13  19   8 -30 -25  26   1 -19 -64]]
[[ 26 -43  22  -2  45  33  28  13  19 -49  16   3   2  -5  14  11]
 [ 28   0  -4 -27 -19 -41 -22  17 -23 -19   1  17   9   0  -4  70]
 [-22   9  14  -5 -24 -29  23  11 -15 107  27  26 -20  11 -19 127]
 [-13  26   7 -12  73  -8  23  26  19 -19 -12 -16 -10 -29  13  -4]
 [ -7 -39 -28 -27   3 -22  13  35  21 -24 -26  20   5  13  12  21]]
[[ 33  36  16   0 -88  29 -17 -64 -28 -22   8 -24  20 -13 -14 -47]
 [ 39  -5  -1 -20 -63  41   3 -74  23  33  -9 -17  10  17   4  38]
 [ 44 -61   5   1 -23 -31   3  15  26 111 -13  22 -25  -1  23  47]
 [ 40 -43   3   5 -45 -40 -13  29  19  40  23  -1 -24  25 -30  31]
 [ 20 -43  24  -6 -46 -24  21 -36  -8  78   2  23  19  10  -1  22]]
[[-27 -55  35 -32 -10 -24  29  29  -3 -10 -36  13  12  34  26  28]
 [  4 -29  17   5 -12 -35  26   5 -23 -11  33  32  10  35  30  34]
 [ -9  24  12   6 -41 -30 -31 -52  32  -1  12  -3   2  -2  25  18]
 [-35 -30  24 -18 -63  22 -16 -54 -29  14   2 -12  18  23  12  23]
 [ -6  45  32   5  46  37  27 -58  30  -9 -14  -2 -41  37 -23 -26]]
[[-10 -40  20  -8 -89 -38 -11 -54 -24 -30  -4 -23 -18  -7  14   5]
 [  2   1 -21  24  18  -7  27 -42 -29   0  12 -20 -16 -18  14  50]
 [ -7 -41  21  31 -82 -41  35 -50  14  17 -19  37 -12 -36  35  22]
 [ 42 -44  18  20  -8 -42   2 -69 -15  46  -3 -39   2 -18 -11   7]
 [ 54 -88  -4   0  -3  47 -36 -43 -27 -67 -25  -2  18 -13  16   1]]
[[ -32   36  -19    7   43  -19   25   -4   -5   12   -1   15  -23   17
     8   14]
 [  37   26  -41   32  -50   22   10  -18  -26    6  -12   33  -21    1
     2  -39]
 [ -93   16   17  -17  -25  -20  -38  -31  -35  113    2    2  -16    2
     5    1]
 [ -16   11    6   15   25   96   37  -38   28 -115  -22  -18    8    4
     9 -111]
 [  61   13  -23  -19  -60  -48  -19  -24    5  -12  -32   17   29    5
    -5   73]]
[[  15   22   16    9    9  -45   -1   49  -15  -32   37    6  -21  -22
    34   29]
 [ -50    5   30   20   88  -70   -9  -10  -38   30  -41   33  -33  -36
    11  117]
 [-125  -32  -32   -1   86  -16    8   79  -38   16   -1  -20  -15   18
     0   61]
 [  61    8    8   -4  -72   -5   42   73   25 -117  -23  -36  -36  -42
    36   -7]
 [  10  -21   -9   -7 -101  -49  -15   -6  -32  120   28  -16  -17  -13
   -32   84]]
[[ 65  64  12  33 -83  40  10 -24  -7 -16  -5  37  22 -10 -24  26]
 [ 79 -45   9   2  14  14 -34   4 -14  50  21 -30 -42  -7   0  93]
 [ 79 -68 -31  40 -48 -80 -31  65  21  54 -28  14 -15 -19 -13  59]
 [-14  -2   1  29 -31 -69 -25 -58  10 127  37  -9  -5 -42 -19  43]
 [ 29  16 -30  14  14  27 -27 -68   0  71 -31 -37  27 -27 -31  -5]]
[[-11  18 -15   2  11  -2  30 -29  22   6 -21 -24  28   4 -18  -9]
 [ 24 -10   8  -4 -42   9  31 -15 -13 -17  13 -27   1   8  20  45]
 [ 45 -68  19  21 -16 -31  21 -45 -32 -45  29   3  13   4 -27  95]
 [-12 -20 -14  28   3 -69 -10  29  27  40  21  21  15  11  12 127]
 [ -4   1 -18 -10  58  44 -11  39 -27 -66  20 -13  -3  21 -29  19]]
[[  -7    4   12    3   20  -34    0   30   24  -32   -5    9  -16   23
   -26   21]
 [  45  -23   20  -10  -34  -28  -16  -26   -4  -12  -13  -14   -5  -18
     3   54]
 [  67  -17  -20  -14  -76   21   -4 -104   -9   19   -4  -26   28  -24
    14    7]
 [  67  -31  -32   -9    7   16  -10  -82   21   92    2   -8   25   13
    29   20]
 [  15  -32  -26  -24  -44  -23   -7   31    5   46   27  -28   24   -7
    24   33]]
[[ 48  -2 -23 -18 -63 -18 -10 -44  10  10   6  10   7  28  -6  -7]
 [ 48 -56  17  22 -23 -43  -9 -34 -15   5 -27 -20  29   2 -21  29]
 [ 29 -30  -9   2 -13  38  18 -23  15  18  22 -10 -15 -24  23   1]
 [ 24  16  11 -31 -43  15  15 -32 -30  25   4  -4   4  22 -23   4]
 [ -4  45 -24   0 -19 -36 -26  -7  14   4 -16   8  27 -33  28  19]]
[[   5  -37  -21   20  -43  -25    0  -13  -24  -21  -15  -23  -26    1
    19   -7]
 [ -42  -21   11   14  -35    1   19  -16  -17    5  -30   28  -14  -20
   -11   21]
 [ -26   -8   15   20   17  112    8  -46  -32  -54   15  -21    9  -32
   -22 -101]
 [  25    4  -15    0   17   29   -7    3  -14  -67  -16  -19   14   -8
    29   -2]
 [   8  -21  -14  -26   32    6  -29   39  -31   20   -1   -8   25    4
     3   36]]
[[  -2  -21   24    6  -17    9   27  -11    3   30  -19  -10  -27    9
    21   32]
 [ -64  -17   -9    3  102  -19   14   53    1   31   23  -21  -30  -12
    24    1]
 [-118   47   13   16   51   33   23   67  -28  -54   -4   20  -23   10
    22  -15]
 [ -26   23   14   -5  -29   46   20  -38  -23  -84   13   23   -6   22
    19    1]
 [  19  -15    6   -8  -17  -10   14   13  -27  -51   17  -12   27   -2
     3   -3]]
[[ -14   -9   31  -25  -18    1   -3   16    0   45   -6  -26   32  -20
   -10    5]
 [ -22   -9  -26    8   87   18  -30   46    3    7    4    7  -23    1
   -22  -50]
 [ -65   11  -20   -3   18    6   -3   25   22   16   17  -10   16  -15
     4 -109]
 [  -6   46   23   26  -41   62  -10   -9   -6   11  -10  -17    0   10
     2  -45]
 [  29  -12   -1   16  -15   12   11  -33    0   14   28  -25   21    7
    19  -11]]
[[-42  22   3  29  82  34   8  18  -7   1  -9 -24  11   5   7   4]
 [-88  25 -14  32 127  30   1  99 -17 -29   8 -12  27   3 -16  17]
 [-60  -7 -18   7  28 -31   8  71  13 -25  25  12  29  12 -16  57]
 [-29  -8 -22 -22   4 -38 -26  40  24  39  -7  -4   1  15 -28  -8]
 [-21  29  28  -9 -14  47   1 -27  30  38  -3  18 -26   5  -4 -49]]
[[ 57 -29 -20  24 -16  26  14  41   6 -14  -5  25 -15  -4 -25 -24]
 [ 99 -31  -8 -10 -54  27  19  35   7  38 -13  28  -9  -9 -23  -8]
 [117  -6  -2 -24 -24 -33 -11 -37  22 113  23 -14 -18 -16  24  59]
 [ -6  -6  14   3  30 -26  23  17  16  21  13 -10 -19  10  10  70]
 [-37  15  23 -17  79  32 -17  51 -16   0 -22  29  28   5 -10 -19]]
[[  -4  -12  -25  -28   -5  -29  -15  -43  -28  -11    5   18   22  -11
   -21  -39]
 [ -63    6  -24  -13   35   61    6  -70    8  -36   31    0   -2   -6
    22  -61]
 [ -13    6  -19   11  -13   57   -8  -20   32  -81  -18   31   32  -13
    14 -100]
 [ -39   -2    5   19   -3   -3   20   23  -22  -65   25    3  -21   22
    -2  -24]
 [ -13   32   -9   -3   45    2   -7   20   -7  -26   -6   13   25  -15
    11  -62]]
[[-42   4 -23  -5  11 -12 -25  36 -18 -29  -8 -29  -8  30  31  -3]
 [-18  -4  -9   4  50  17 -12  58  28 -24 -28 -10 -21   2  32 -12]
 [ 54 -11   0  29   0 -16  14  35 -22 -84  18 -23 -20  28   9 -50]
 [-19 -10  -4  13   4 -33 -29  11 -28 -15  13 -21  25 -12  24 -30]
 [-21  14  -4 -12  42  13  -8  16  33 -64 -12  -9  28 -10  23   6]]
[[  24   -5   23  -13  -10  -26  -11   -7   13  -16   -7   10   -4  -12
    20   15]
 [  -6  -23    8   17  -11  -78   -1   15   15   26   13    8   23  -10
    13    8]
 [ -65   81    2   16   31   30    3  -11   13   43   -8   15    7   -7
    13  -84]
 [   1   50  -16   -1  -20   98  -17  -21  -10  -74   -6    2   21    3
    14 -127]
 [  49  -28  -11   21   -7  -39  -15   -1   -9  -12   14   14    4   22
     0   28]]
[[  30  -13   21    0  -47   -2    4  -31  -14   -5   21    4   -2   -2
    17  -17]
 [ -61   13  -17    6   67  -24  -19   -5   -2    6    9    6   22   11
     1  -20]
 [-114  -10   17  -17   69    1   16   79  -13  -15   -7  -12    6   11
     6    9]
 [ -12  -22   -3   -7  -50   -4   13   34  -14  -53   -9   -3   18   -4
    23  -38]
 [  26   -5   -7   -2  -86   31   -3  -70    6  -13    1    7   17    8
   -12  -25]]
[[-20  17 -19 -18   6 -17  18  -1  20   7  -2 -18  -9  -6   6   0]
 [ 17 -18  -7  -4 -39  44   3  17  -7  19 -20  21  15  -3  12 -17]
 [ 22   6   9   5 -11  -7 -18 -10  12  37  -5   5  -5 -18  -7 -44]
 [-57 -24   0   0  53  12   2  29  15  32  11 -19  16  24 -18 -15]
 [ -3  -9 -11  13  20  25  16  -8  22 -16 -11  -9   9  -7 -13   1]]
[[-25  12  -6  21   6  -7   9  11  20  22 -14  -3  10   3  20   5]
 [-40  31  -4  22   5  11  -5 -13   2 -34 -21  -9  -7  12  -5  -5]
 [-27 -23   7  -1  39  -8   1  12  -4 -35  13 -18  -6 -11  11  16]
 [ -7  11 -10 -14   1  16   9   7  21 -32  13  21   2   4 -18  13]
 [ 39   0  10 -17 -54 -26   4 -11   6  -5  -5 -20   4  -1   7  -8]]
[[  1  12  15   4  -7 -21  10   3  -8  18  10 -11  -7 -15  16 -11]
 [ 29  16 -16 -18   0 -15   0  24   8  -5 -18   5  14 -13  -5  27]
 [ 70 -53  -6   3 -22   4 -14  25  15   6  -6 -14   5  22 -16  37]
 [ 32 -37 -17  23 -24 -51  -3 -16  16  38  -6   4   9 -15 -15  28]
 [  7 -19  -4  -7   6   1  10 -33 -13  34   4  13  17   6   8  12]]
[[ 27 -13 -19   5  21 -14  16  14 -18 -52  17  11  14  -7   3  31]
 [ 18 -25  -9 -10 -11 -22  26  -6   8 -31   4   3  17  -1  18  38]
 [ 71 -69  18 -20 -69 -64   3  -3   7   8 -13  22 -15  -8  -1  97]
 [ 16 -24   1   9  -2 -54  -4 -17  15 -20 -21 -15   3  -4 -20 127]
 [-28 -14  -8 -13  32 -30 -16  -4   7  20   2  -2 -16   5  -2  15]]
[[ 37 -17   4  -1 -27 -11  26 -17 -16 -27  -6   8 -20 -24  -7  19]
 [ 38  -2 -11  -1 -34 -43  20 -49  16  17   9 -24 -12 -17   8  54]
 [  4  36  -2   7 -53 -41 -15 -99  -1  52 -16   4  -3 -25  13  33]
 [ 43  14   0 -11  -2  46  -5 -31   3   6 -18  11  22  -8  -5 -10]
 [ 15 -19 -19 -25  -5 -44  19  24  20  48   4  15 -21 -13  -4  47]]
[[ 35 -37   4  -1 -56  13 -12 -19   3  -9   6 -28  23  13   4  -8]
 [ 55  12 -15  17 -14 -38  -8 -24 -16  35  21  21 -26  15  13  30]
 [-41 -30 -24  -9   8 -30  -4  16  14  63  16  16  16  21   9  40]
 [ 21  17 -10  -5 -25   3  11  15 -26 -51 -23   8  -5 -13  -2 -46]
 [-12  -4 -22 -12 -73 -15  -4 -38   9  69  16  -1   4 -18   8  32]]
[[ -3  13  -3 -11   0  14   8 -21 -19  -6  14 -28  -6  20  10  23]
 [-49 -11 -23   8  17 -24  12 -35  -3  20 -29  10  10 -19 -19  33]
 [-44  23 -23 -17  30  47  21 -18  11  17  -7 -10 -19  -2  -1 -11]
 [ 14 -15  15 -26   6   6 -22  28   4 -66  11  15  23  16 -15  27]
 [-13   6  -3 -12 -11 -31  -4  35 -14  93   0   3 -13   7  15  62]]
[[-17  26  -9 -12 -28  18 -14 -19  12 -34  21  21   4 -10  -4  24]
 [-16   9 -28  13  24   2   2  39   9 -22 -18  -1 -12  -7  -8  68]
 [ -3 -41  12  22 -23 -25 -11  61  15  -1  -7  21   3  -2 -13  46]
 [ -4  -3   3 -21 -40 -48   9  18 -21  12  12 -16 -15  -2 -20  57]
 [-19  16  18  20 -18 -17 -15 -18  -3  44 -12 -14 -17  -2  15  37]]
[[  9  -2   1 -26 -46  23  30 -24  21 -47   5 -20  16  21   3  25]
 [ 62   8  -7  22 -22   3  -3 -14  12 -47   5   5   0  10  -9  27]
 [ 58 -65  -2   3  20 -43 -22 -43  -1 -41   6   9  -3 -18  21 127]
 [-20 -15 -21   9  90 -42  15  28 -10 -27  27  -8 -14  18 -27 110]
 [-71  16 -13  -1  65 -38 -10  49   9 -14  14  -3  21 -23 -14  10]]
[[ -1  -6 -14  13 -40 -15   1  -8  22  -8  19  -3  15  26 -20  33]
 [ 69 -14   3  21 -81   0 -11 -43 -17 -23  15  24 -16   4  22  15]
 [ 95 -15  25  22 -61  29  20 -79 -18 -33 -17   4   2  21  19 -26]
 [ 88 -12 -23  27 -30  31  -6 -43  -2  -1  24 -26  23 -23  12  52]
 [-10   2  10  27   3 -82   9  66 -18   9 -20  21 -14 -24   6  73]]
[[ 26 -25  -8 -19 -32  31 -27 -57  10  -9   3 -13  14  -1  12 -26]
 [-37  15 -22 -20  30 -10 -12  -9  21   2 -18 -17  22  23  11  -2]
 [-61  10  20 -17  -1  -2  11  27  11 -83 -16  10  28  16 -19 -25]
 [ 23   0   2 -25 -92  18 -21 -29  11 -17  -9  18   9 -24 -10 -39]
 [ 25   7 -21   8 -18 -20   9 -61  17  41  28  -4  -4 -17  14  -3]]
[[-13  29   5  12  17 -38  17  18  14  11 -16  21  -7   1  -5  36]
 [ 19  37 -10  15   2  -4  24  -1  13  24   2  11  18  16   2  19]
 [-20  10  -9 -16   5  37  17  20  -8 -22  -4  27  -5  21 -21 -20]
 [ -9  14  26   0  14 -24 -19   0   4  -2  16 -23  -1  11   6 -17]
 [ -3 -35  -2 -19 -17 -33  -2 -17 -22  17  22  14  14   3 -20   3]]
[[ 18 -31  25 -11  -8   7   3  26   8  -8   9  -3   3  12 -27  36]
 [-12  29  11 -18  60  -8 -12  27  13  36   4  -3  16  -6 -16  56]
 [-27  14  26   6  -9   1  -6  48 -12  -9 -11  20 -20  -2   7  36]
 [ -8 -10  -8 -26   9 -26  12  -9  18 -28  -9 -11  -5   1 -20  13]
 [ 35 -17   0  -6 -42 -13  12  16  15  16   2 -12  -5  11  19  42]]
[[-32 -14  -2   3  46  49  25  -4  12  22   1  10 -16 -34  18 -13]
 [-32  -2 -35  21  78  11 -12  82   6 -26   4  -4  18 -28 -27 -64]
 [-66  -4   8  26 -51 -47  -9  35 -34  80   8 -34   2 -28 -25 -34]
 [-11  11  29  -3 -36 -15 -32  18  -7  39   9  27  15  18  -7 -25]
 [ -4  21 -15   6   7 -32 -10 -49  13  12 -25 -29  25  -2  27 -19]]
[[  -8   -4  -24   20   43  -15   -3   78    8  -11    4   23    3   15
     8   26]
 [  43  -20   -2   26    5 -105   17   59   -7   45    7   23  -19  -25
   -26   23]
 [ -18   27   -3    6   58 -100    0   47  -30  127  -11  -17  -17   -7
   -11   82]
 [-102   38  -31   27   22   39  -27   24   17  -14   25   21    5   12
   -27   13]
 [  -8   19   17   10    2   -6   -6   28   -5  -24  -32   -4   -4  -13
    -4   16]]
[[ 46  14  22  10 -31  42 -21 -14 -13  -2  -6  16 -26  -4  -4  25]
 [-34  87 -31 -18  24 -21  21 -20 -19  42 -10 -28   5   9   1  48]
 [-19  -2  12 -28  -3 -72 -29 -10   7  18   1  -7  -4  13  21  81]
 [ 19 -38   5 -21 -47  -7  10  52  28 -21 -32   4 -23   9 -10  81]
 [ 37 -12   9 -16 -37  16 -17  37 -33  51  -3  26 -30 -27  -9 -38]]
[[ 14   9 -25 -16  20 117  22 -28 -31   7   8 -23 -20  25 -24 -87]
 [117  -9  -9 -12 -38   9 -28  65  -8 -38  -5 -16  14  24  -4  33]
 [ 37 -14  11   1 -18 -84  26   2 -14 101  17 -20  22  -7  12 126]
 [-90  18  20 -13  40  -1  10 -11  24  89  20  23  12 -16   9  18]
 [-15  53 -17 -21  24  35 -14 -28   0 -48  15  -8 -19 -17   2 -54]]
[[-41  32  -4   1 -12  59  -3  -3 -21 -22 -14  27   2  27 -22 -93]
 [ 72  -3  18 -17 -61  51   2 -94  10 -76   6  -3  30  -4 -24 -69]
 [ 37  -4  -2 -28  -7  -7  28 -28 -35  87  25 -12  15   6 -29   0]
 [  7   5  22  16  14 -56 -32  38  -8  29 -23  25 -10  24 -18  34]
 [-27   6  10  22  -7  -7  15  65 -14 -34  -7   9   3  14  12 -30]]
[[-28 -23 -21  13  49 -14  -2  -2  42  27 -25   9 -16  16  15  42]
 [-21   8  24 -31  76  51  44  27 -31  21 -21 -30  41 -12  27 -21]
 [-47  31  27   6  60  19  20  73 -22 -13   4 -23  -3 -29 -25  47]
 [-66 -29  15  33  30 -49 -15  23  19   7 -24 -26  29  21  -6  27]
 [ 35 -25  40  38 -28  30 -20  12  40  10 -30 -16  33 -16  -8  17]]
[[ 41   2  43 -10  45   8   2  42 -34  -6   9  23  36  34 -16  23]
 [ 48 -39 -30  -4 -39  17 -30   1 -15 -12  37   9 -18  44 -22  14]
 [127 -31   8  17 -12 -14 -21  29 -17   2  46 -20 -29  32   8  19]
 [ 30  36  26 -24  36  -4  31  55  28  47  39  11  -2   5  13 104]
 [-43  -3 -21  43 -11   3   4  20  40  -2 -12 -23 -17  39  17  38]]
[[ 58  37 -16 -19 -73 -40 -20  -4  -4  -3  13 -10  41 -26   5 -34]
 [-43  76  37   2  38  13  39 -57  11  55   7  23  32 -22   3 -79]
 [ 42  50  -5  33 -17  82 -15 -13  -4 -67   1  11  -2   2  -2 -91]
 [ 12 -20 -15 -28 -10 -46  41 -46   0  98  -3 -31  25  30  -7  51]
 [-29  50  -6 -31  33 -30  16   4 -20  15   2  27 -26  41 -23   1]]
[[   7   26  -14  -24   13   51   29  -53   10   44  -16   -9  -12   27
   -28  -40]
 [  -9   29   27   41   49   36   23   22   22  -15  -31  -15  -16   -6
     5  -99]
 [  31   28  -16   33  -38   48   16  -16  -12 -112   40    9   44  -28
    14  -67]
 [  -3   13   -7   -3   -7  -21  -28  -38   34   78   38   37    9   12
    -1  -77]
 [ -31   26  -18  -13   77   37   -4   -4   -1  -36   25  -25   16   29
     6  -65]]
[[ -70  -34  -21   23   73   30   27   90   -7  -27    7   -8   14    3
    -8  -17]
 [ -45   31  -16   29   -8  -59   46   64   17  -88   24  -22   14   -4
    20  -58]
 [ -79   46   -4    5   40  -10  -23  -22   37  -83   -4  -11  -28  -17
     0  -63]
 [ -69   34   37   29   56  -30   41   16   17  -80   27  -29   11  -20
    27    8]
 [ -28   16   21   45  120   44  -17   81  -10 -100  -24  -20  -10   46
    29  -48]]
[[-33  18  18  -5  50  13 -25  -8   6  19  12  22  12  19  31 -18]
 [ -8  41  12  31  28  23 -21  36 -14 -14   5 -14 -12 -17 -27 -16]
 [ -4  -4  -8  -5  33 -44  21  52 -10   4   0  29 -17  22   1  58]
 [ -9  -1 -13  16  -2 -11   1  29 -12  -6 -10   0  22  18  13  -5]
 [-18 -14  -3  18 -42 -67  30  43   3  80 -22  -7   9 -27  -7  32]]
[[ -22   -1    3    9   86   46  -25   38  -19  -21   17    9   28    4
    17   23]
 [ -28   59   10   11   49  -66    9   78    9    6    2   26  -13   15
     8    8]
 [-107   38   28   32   35  -60    5   48   17   40   21   18  -11  -10
   -22  115]
 [ -52   72   30   15  -20   19  -16   37   19 -118  -15   23  -28   13
   -24   30]
 [ -68   10    2  -19   -3  -68    3   24    2  112   22  -24   16  -18
   -20   73]]
[[ 34  22 -14  17 -43  31  22  -4   5  -3  20  32  13  30 -12  -1]
 [ 29   0  33 -28 -29 -42  27  32 -14  65  -4  -5 -11 -27  -7  52]
 [ 18 -51  24   9  31 -37 -13   1  30  30  13  -3   1 -22   0  76]
 [ 78 -11   0   0 -76 -31  -6  45  28  23  12   0 -20  -5  18 127]
 [-17  50  12  12  33 -18   7 -16  19 119  31 -21 -13 -13  -8  16]]
[[  1  51  -5  25 -13  40 -25 -33  16  11  -6   6  -3 -29  28 -54]
 [ 41  23  28   3 -37  46 -10 -25  24  33 -16 -12  16   0 -17 -17]
 [ 39  -3 -11  20 -78  26  -8 -68  13 -15  17  12  26   7  19  -5]
 [-15  21   2  14 -26  -2  15 -56   0  55  -4  26   2 -15 -10  32]
 [-78  16  28  10  49  -5  28  33  21  54 -26 -21  30 -13   8 -37]]
[[-62   4   3   5  25   2 -20  12 -14 -32 -22  23  17  20  22   2]
 [  9   2  15   7  19 -27  26 -25   3 -43 -19   5 -14 -20 -13 -30]
 [ 44 -14  -8 -24 -26 -34 -21 -20  29 -45 -13  12 -25 -14 -13 -52]
 [ 28  28 -29 -28  12 -32  -9  19  10  16 -14 -29 -18  18  19  -9]
 [-45 -11  -4  -2  38 -42 -13  78  15 -19 -24  29 -11  -2 -18  35]]
[[  9 -17 -15   3 -33   2  23 -13  21  15  16  15  12   2  21  16]
 [ 36 -22  19   5 -37  16   3 -14  -5   8   7  16  17  16   8  37]
 [ 57 -32 -11  22 -25 -28  -6 -11  -5 -16  -5 -16   8  -7   6  50]
 [ 12   1   5 -12  18  -8 -14   6  21  25  16  -9  17 -15  -9  40]
 [ -4  -9  -8  -4  25  17  -3  30  -8  11   1  11   0  10 -16  20]]
[[ 25 -19 -13  18 -56  -6  -4 -13  11  16  -9 -17 -18   2   4   3]
 [ -3 -27 -19 -18 -21   4  -6 -54   4   5   4 -16   6   5  13 -14]
 [-12  -1   5  15   6  37  -2 -19   2 -40  -9 -14  16 -12  17 -18]
 [-36  35  -5  22 -11 -28  12  27 -20 -33 -16  -7  -4  16   4  33]
 [-37   3 -19  -6 -17 -12  12  50   1  10  -9   7 -21  11 -18  40]]
[[ -23   13   12    5  -25  -10   -1  -41    4   31  -16   12    7   10
     6  -24]
 [ -14   -8    7  -17   42   43    1  -30  -10  -51   -7    3    1  -13
   -12   -8]
 [  68  -26    1   12  -30  -12  -14   16   -8 -127  -10  -17  -16   -9
    12    4]
 [  41   -6  -12   17  -41  -67  -10    4   -7   93   -7   17    3   13
   -19   89]
 [  -9   15    5    4    9    1    3  -25   -9   26    2  -20    5   -5
    16   16]]
[[ -8 -14  10 -16  29 -49   5   5  10   3  -9 -18  15   0 -18  20]
 [ 20 -12  17 -19 -24  35 -13 -16   4 -45   1  21  14  -2  21 -46]
 [ 60   8   3  16 -23  -2  -3 -60 -18 -15  13  11  13  -9  23 -13]
 [  0  -5  20  12  23  12 -20 -25   7  56  11  20  -4  18  -9  19]
 [ 23   4  17   3  36   2   5  10 -19  -2  -7   1 -10  -9 -15  17]]
[[  3 -35 -20  -4  -5 -27   5  24  19  30   9   1 -18  -9 -15  23]
 [-57  13   1 -12   3 -17   6   9   8  11  19 -12  19 -14 -10  -3]
 [-32   1 -21  20  -8  38 -15   8  18 -37   8 -10  22 -17  -8 -34]
 [ 41 -16  20 -15 -13  30 -16  27   8 -10  11 -10   8  -8 -18  15]
 [ 36   4   9  -6 -25 -25  -5  -9 -20  19  11  18  15  -3   7  20]]
[[-30  -9  26   0   1 -10  -6  20  -2  24  -4   4   1 -20   0   4]
 [ -6 -19  -5 -10  -3  16   7  17  -3 -24  -1   4 -23 -13  16   2]
 [-16 -20  22  26  20 -31 -18   4   2  -6  -6  15 -23  21 -18  23]
 [  3   9 -15 -17  -4   7  14 -21 -20 -14  -3 -19 -16  28  10  33]
 [ 14  -3  -2  19  -5  28   5 -15 -19 -20 -17 -12  16   1  -1 -10]]
[[ 16 -19 -12  14  -2 -15 -25  18   9  16 -23   5  -3 -13 -19  16]
 [ 71 -34  -8 -20 -46 -31   2 -28  14  -2   9   2 -15 -12   7  33]
 [ -2  -5   4 -11  29  -4   9   5   5  21 -17  20   6  13  14   3]
 [ -4  49 -20  14  28  29  -3  -1  -5 -36  16  13 -16 -18  19 -13]
 [-28  34 -10   7 -20   4   5  18  -9  19  17 -18 -14  10  17 -16]]
[[  28   27   12  -17  -79   19   10  -68   21   44  -13   24  -11    1
     9  -36]
 [ -45   21  -23  -20   33   48  -12  -71   28  -11   23    5   -3   27
     1  -16]
 [  37   20    7   14    0   22   11    3   -6 -127  -11   10  -21   24
    12  -49]
 [  27  -28    8   21  -56  -65   12   20    5   49  -19   10  -12  -20
    19   84]
 [ -33    9   19   21   34   39  -18   -2   -7   37   20    5   15  -21
    17  -54]]
[[-53   1   4 -19  61 -26  -1  29  -4  36 -10 -13 -11  -9  -2   1]
 [ 49 -24  -3  -4 -15  35  23  14  11 -38   8  27 -13  -4  -9 -63]
 [ 69   2  -1 -18 -57 -27   5 -29   6 -25  23  -2  -8 -16 -19 -14]
 [-49 -29  18  -4  73 -12 -26 -19 -14 115  11 -23   4  -3 -13  -7]
 [  4 -28  26   6  66  47 -21  31  12 -50 -20 -20 -12  21  -6 -30]]
[[ -8 -25  -9   3  51   9  -9  58 -12  35   2  -6   4 -21  23  -5]
 [-57  42  10   4  20 -19  12   1 -21 -21  15   6  14  -3  26 -45]
 [-53   5 -15  20   7  61 -10 -37  23 -36 -15 -15  17 -17 -12 -33]
 [ 12 -21  -4   5  14  40  -6  49   2 -56   3 -15  17   5 -13  30]
 [ 13   4   9 -22  -7 -37   5  26  -6  18  14 -24  21 -13 -11  23]]
[[ -17   35   13   28  -17   50   26  -18   21   54    6  -17   -3    4
    15  -53]
 [ -70   25   -6  -32   49    3   11   47   -5   28    8  -10  -31  -11
    18  -57]
 [  -9   61  -32    6  -47   -6  -33   47   -6   77   14    3  -27  -16
    -8  -67]
 [  46   27  -13   24  -63   32  -39  -64   14   62   14    9   26   28
    27 -117]
 [  26   37   38  -23    0   50   25  -44   11   18  -18   -9   -5   12
   -13  -72]]
[[   5   38   -3   -9   42   20    1   21    9   24  -25   28   34  -24
    32  -56]
 [  30  -57  -28  -24  -10   -3  -22   32  -29   44   18   23  -36   19
    31   -4]
 [ -84   25   15  -35   31   -9  -24   26  -28   69  -15   27    2   18
    11  -52]
 [-119   38   -3  -16   22  -23   20   21   27   19   -7  -30   -5   19
    -6  -67]
 [ -50  -27    2    5   78   93  -25    0  -13  -82   -2  -19  -34  -38
    22  -60]]
[[ -9  48  29 -26 -11  -1 -16 -16 -37  27 -35  13  22  24 -26  -3]
 [-74  38  15  -4  46  48  -2 -54  -2  11 -13   1   0  38 -16  13]
 [  2  25 -34   7  23 -58 -20  49  20 -73  14   0 -10 -21  -5   2]
 [-78 -10 -25 -10  46 -39 -40  95 -10  -4 -26  25  28   4 -30  29]
 [ 48 -61 -23  25  20  65 -33  28 -29 -50   2   2  11  39   0 -45]]
[[-50   3   5  30  32  12  38  40  -6 -29   5  -1 -37 -20 -16 -50]
 [ 82 -45  30 -36 -18  11  26  92 -27 -70  18  33   4  -9  17  42]
 [ 36 -12  -3  35  -2 -85 -38  36 -33 127  33 -29 -10  15   4 118]
 [-38  21 -31 -18  82  22 -27  -7 -23 120 -33  -6 -23 -24 -26  61]
 [ -2  12  -5 -16 -31   6  24 -25  25 -96  36  17  17  -9  36  16]]
[[ -31   -8   10   -7  -58   50   34  -21   35   14  -32   30  -31  -12
    34  -51]
 [ 118   13  -12   15 -114   65   10  -56  -11    4   -4    9   14  -28
   -15  -22]
 [ 119  -58  -29   10  -55  -20   18  -41    3  122  -27  -18   26   37
   -34   -2]
 [  76  -60   20    9  -29    1   -7   33   23   29   23   -8    2  -23
    27   63]
 [  55  -12  -31   38  -23  -29  -11  -41   19   48    4    3   38   24
    22   -9]]
[[ 58 -56   6 -16 -53 -48  28 -30 -20 -50  -5 -16  26   2  27  26]
 [ 75   8  -8  24 -35 -63  24 -26 -28 -31   2  17   9  -4   1  23]
 [ 21  20 -26 -32 -35 -12  24  -6 -25  16  18  17 -13 -28  18  13]
 [ 21  20 -23   0  18  30 -27 -16 -17  -8  26  11 -27  -5  18   9]
 [ 12  -8   5 -18 -29 -36  12  10 -30  73   4  -5 -18 -23  -2 -13]]
[[  6  -9 -23  10 -31 -15   7 -85   3 -38  27  23   5 -28  21  12]
 [-76  63  20 -23  45  57  -8 -69 -23 -18 -16 -31  23 -31 -14   0]
 [-92  40   1  -3  30   1 -21  37 -16 -79  -3 -11 -33   0 -28 -17]
 [  9  18   5   4  -2  31  28  19  -3 -42 -31 -24 -24  27  17 -59]
 [-11  36 -26  -3  40 -13 -15  11  26  25  19 -12 -17  27  -9  10]]
[[ -4 -42 -10  -5  44  10   1  27  21 -30 -17 -16  18 -21  16  -2]
 [  7 -40   3 -24  19 -40  -1  92  -7   0 -23 -25  28  25 -23  81]
 [-42  -4  16 -24  15 -28  22  41  -6   2 -10 -32 -26  -7  24  73]
 [ 16 -17  -4  27  48  22 -26  67  22 -70 -25  29  -2 -16 -10  50]
 [-21 -23   5  15   5 -77 -26  30 -16  22  25  -5  -5  -5   8 122]]
[[  52  -75   -2    5  -24  -48  -22    8  -10  -37   -5   26  -15   23
    27   46]
 [   7  -13   27  -22  -11  -49    4  -78   -3   42   22   13  -24  -26
     1   31]
 [  14  -35  -19   20  -10   23   29  -18  -30  -22   -4  -22    7   24
    14   31]
 [ 100  -50   -8   22  -90  -51   20   24  -20  -56   28  -10    2  -10
   -19   79]
 [  80  -31  -15  -11  -51 -106   19  -22  -17  127   27   29   22   15
    16  118]]
[[ -12   -4  -19   28  -46  -52    1  -84  -20   30   13    4    4   -9
    25   35]
 [  -6   20    9  -16   -7    3  -32    2  -25   70    7   19  -29  -30
    -5    7]
 [  42   -7  -16    2  -81   29   24  -34  -22   22   26    9    8   11
    21  -55]
 [  57   -4  -15  -21 -108   49   24 -101   -8   83   28   27    4  -24
    28  -67]
 [   4  -31  -24   10  -62  -14  -25  -98   19   84   19  -18   29   16
    11  -15]]
[[-45  11   1  24  62  29  28  26 -32 -38 -20  20   1 -23 -14  26]
 [-26  15  29 -20  71  -4 -16  63 -27 -49 -14 -31   7   8  30  14]
 [-28 -28   8 -29 -12 -56   7  38  12   2 -17  29  13   9 -12  89]
 [ -7 -59 -29 -13  12 -57  13  16 -29 -68  18  14  -2  16 -11 119]
 [-24 -18  -2  28  -8 -35   0  28 -13  33 -20  23 -13 -23 -16  17]]
[[-30  -5 -25 -17  57  17  31  53  26 -58 -10  -6 -26   9 -21  38]
 [ 17  13  19 -11 -41 -85 -29  44   7 -19  16 -17  -1  -4  12  61]
 [ 21  32 -22  17 -32 -74  21 -40  -7  55   9  16  19   2 -20 117]
 [ -6  40  -8  25  15  10 -12 -44 -11 -30   6 -13  24  14   8  -7]
 [ -2 -34  -4 -15  12 -79   8  16  22  83 -10  26  24  -4  26 104]]
[[ 13  -1  11   4 -49  -1 -15  21 -26 -23 -10  18  24   9   7  23]
 [ 15  45  22  29 -30 -89   2 -16 -20  31  16   8 -31 -25  -7  70]
 [ 19 -10  26  22   1 -30  -4  17  25  72  -3  25  28  -2   5 118]
 [ 49  12   1  -8 -55  -8  16  14  -1 -25 -31  16 -17  15  26 -11]
 [ 45   8 -23 -24 -70  -2 -32 -60  -4 127  -8 -21 -29 -12  14   9]]
[[  8   7  14  23 -79  71  17 -43 -15  -4  17  24 -30  -9   9 -20]
 [ 50 -37 -15 -13 -57 -53  25  -3  28  57 -13  -4  -6 -30  12   8]
 [ 12  38   4  23 -40  -9 -29 -61  10  76  -5 -28 -18  13   6 -15]
 [-17  39  -4  12   8  21   4 -54  -5   1 -14   5  -2 -32   5 -60]
 [-30  19   8 -32  32   3   5  30  24  65 -21  21   1   4 -22 -31]]
[[-28  25 -26 -24  13  48 -20 -10   1 -25 -32   0  19 -23  24 -54]
 [-56  10   3  13  15   6 -14 -27  26 -24   8  16  15  23   8 -17]
 [-32  13   5 -27  30 -71 -25  38  -9 -51  27   1 -11  -2 -17  41]
 [-74  50  12  14   8  -7 -30  51 -29 -25  -5  16   4  -7  12  38]
 [-53  18 -16  -6  36 -12  14  70  10 -75  22 -13  25 -24 -14   0]]
[[  13  -16    4   24   25    3   12   25    1  -19  -21   13   22  -22
    27   16]
 [  14   11  -16   21   15  -69   17   27   21   -5   14  -11  -10   17
     4   -6]
 [ -39   65  -26   -7   64   21   24    4   -3   10  -10   -6   -7   28
    16  -51]
 [ -28   37  -18   16  -34   68   -6   24  -17  -14  -13   16   23   17
    21 -118]
 [  28  -33    6  -28  -40   26    1  -45  -26    5   25  -25   21   -6
    -3    1]]
[[ 21  28 -29 -12  20 -17  -2   2 -13  26  -6  17  -8 -22 -19  28]
 [-34  40  21  27  58 -42  18  53  10  -6  17 -12  20  15 -12  19]
 [-78   3 -19 -15  79 -31 -10 111   6 -26   8  -7   8 -19 -23  81]
 [-56 -52 -15  18 -24 -58  -7  54  25 -26 -29  21 -11 -25 -26  82]
 [-12  -8   4   6 -28   4  -9 -53 -11   2  12 -16 -10   5 -25   1]]
[[ 33 -30 -16 -20  -2  -3  -4  41  -8  14  -5  10  20  -1   8  -7]
 [ 76  22 -27  -5 -76  -7  -6  28  28  42 -20 -12  13  11  28 -12]
 [ 54 -22  18  15 -40  55 -24  -3 -26  48 -15   4  -8 -13  13  29]
 [ 52 -36  22 -21  21 -37  20  -9  -5  39  -8  23  23 -15  -8  60]
 [-25 -34 -12   7  21 -53 -16  32 -16  55  -7  12 -17   7   4  47]]
[[  -6   13   13  -30  -27    3  -17  -59  -13    3   -1   -3    9  -12
     5  -15]
 [ -36   -9   15    3   30   12    7   -3   27  -75   -6  -29   25   19
   -15  -53]
 [ -36  -27  -21   -8  -17   21  -11   -2   -7 -103   19   10    7  -10
    -3  -58]
 [  14  -20  -27  -16  -32  -12   27   -5    4  -52   15  -10   -2   -4
    13   13]
 [  24   56  -20  -24  -60   19  -23  -27   -2  127   22   14  -28    2
    20   16]]
[[ -42    7  -20   -5   17  -13  -23   -2   10    2  -28   26  -30   -4
    13  -23]
 [  31   -5   -9    8    3    0  -24   42   -4 -100  -20  -29  -24  -22
    26  -30]
 [  79  -38   11  -24  -42  -18    1   27   -5  -76  -21  -16   16   14
    16    4]
 [  25   11   -9  -24   23  -43   20  -34  -15   66  -25    8   -2   -9
    24   34]
 [ -64   46   27  -31   93   57  -10  -16   28  -13    6   27   15  -17
    21  -75]]
[[ -30   32  -19   29   48   10   26   32   -8  -16   -8  -15   -4   23
   -21  -31]
 [ -34  -22   -9   10   43   32   24   15   23   -1   32  -13   13  -16
   -29  -56]
 [ -41    4   19  -32    6   -2  -26   59  -16    7    3   27   20   -1
   -29   22]
 [ -36    8   -1  -29  -89   -7  -36  -12    4   27  -29   13   21    2
     0   27]
 [  38    9   10   -7   11   77   14  -76   -6  -17   -8  -24   -1  -17
   -12 -127]]
[[-32   1  20  -6  47  20   3  59  27 -20  21 -20  -6  32  28  30]
 [ 55 -25  25 -13 -46 -68  28  20 -16  56 -34 -14  24  20  32  35]
 [ 48 -42  20 -20 -17 -40  13 -52  17  86  32 -28  21 -18  27  56]
 [-62  29 -25  -4  70 -23  11 -45 -24  -8 -13  -9 -26  28 -24 -19]
 [-48 -17 -10  19 114   7  24  37  -3 -70  14   7 -15 -30  13 -16]]
[[ 21 -45  14   5 -36  23  20 -20  32 -13 -29  13 -12 -14 -23   9]
 [-32  52 -29 -28   8 -79 -19   3  22  71  19 -25  19 -21   8  42]
 [-31  15 -10  15  -2  40  -9 -37 -26  71   4  12  -9  14 -24   5]
 [ 43  20  26  13 -11  39 -15  37  -8 -96  -1 -32  24 -32 -32  39]
 [  5 -34  29  16  17 -18  22  64 -33  31  25 -27  -6  27  14  96]]
[[ 33  50  24  23 -58  61 -24 -61  12 -32   1 -13  25 -23 -25 -78]
 [ 77 -57 -19 -14  18  11   4   9 -18  52 -23  15 -20 -14  18   9]
 [ 27  -2 -28 -34 -23 -38   8  46  27  85  -1 -11 -26 -14  16  68]
 [ -8 -15  20  30 -25 -42 -12 -41  18  53   0  19  -1   4  32 -33]
 [-14 -21   5 -32   1  45   8 -64   9 -14  14 -16  27  25  -5   0]]
[[-69  28  17  10 -17  16 -26 -53  30  -7   6 -14  -9  17  -5 -35]
 [-15  55  17  18 -65  79  21 -72 -32 -37  -6   7  -2   2 -30 -78]
 [-52  38   0  12  12  36  15 -47 -17  78  -7 -20 -19  18  29 -36]
 [-37  26 -31   8  52  27 -12 -31   3 -68  20  -8   7 -13 -27 -43]
 [ -7  18  28  28  18  16  -1   1   3 -44 -33   7 -28 -10 -30   4]]
[[-21  38 -24  -5 -31  26  -4  18  -6  54  26  28 -15  -2 -29 -43]
 [-43  53  20   4  20  37  17  24  -1  -6  20  -1 -14  -7  -6 -69]
 [ -6  24  15 -27  22  26 -13  18 -17  37 -21 -21   2   8  23 -58]
 [-11  26   0 -29  -5 -18   6  23 -17 111   0  -6 -27  -8  29 -32]
 [ -5  24  17  -8 -17   5 -13 -32  28  34 -15  -6   7   9 -23 -37]]
[[ -31   34  -30  -30   -1  -16    2   15   29    9   -8   12    1   23
    19  -38]
 [  15  -41  -17    7  -13   28  -31   43   20    9   27    7   -2   27
     9  -36]
 [   8  -19   18   20   40   38  -22   30    6  -19    3  -14    6   20
   -20 -100]
 [ -57   20  -11   22   20  -31   -6   53    0   31   15    6  -17   29
   -14   20]
 [ -65   71    9  -16   67   56    6   -5   -4  -80  -16    4   11  -26
    -4  -49]]
[[-54   9 -13  19  -2  30  13 -30   7   0  17 -21  -4  30   4   1]
 [-82  45   3   6  92  42  -7  17  21 -80 -29  12  12 -20 -24 -54]
 [ 33 -15  -7  -8 -23 -26 -13   5 -20 -75   7  17   2 -17  28 -43]
 [  9 -31  19  13 -29 -46  -5  27   1 104 -15  19   1  -8 -17  76]
 [  2   5  18 -16  51  51  -6   5   1 -67  -2  10   4  -8  24 -71]]
[[ -39    1   14   10   63   20   12   60   28   36   -1   11   -1   -8
    -9   20]
 [  39   23  -23   11  -34   53  -17   73   22  -79  -18    7   27    8
     4  -35]
 [  46  -27  -19   29    3  -51  -16  -29    8   95  -14  -21   18  -10
   -24   96]
 [ -60   22   14   19   86    8   16   -8   31  127    2   -5    0    3
   -22   23]
 [ -27  -14  -14   26  -22   16   27  -10    0 -108   20   14  -21   15
    -6  -15]]
[[ 13  -9   9  18  22 -24   4  48 -15   0 -28   6  -9  22  -4 -43]
 [ 28  25  -9  -1 -79   8 -15 -46 -28 -11   6  -5 -12  18 -15 -45]
 [ 14 -42   5 -19  15  26  23 -16 -28 102 -19 -27  15  -2  15 -13]
 [ 28 -27  23 -24   7 -10 -22   5  26  19 -10   1  10   4  15  -4]
 [  5 -30   5 -17 -42 -21  15  17 -27  12  26   2 -24   4   1   6]]
[[ 39  17 -30   0 -17 -10 -19 -29 -14 -25  -4  15  26 -15 -30 -20]
 [ -3  18  27 -31   3  93 -27 -26  26 -23  -5 -17  27 -19  14  -2]
 [ 52 -13  17   4  20  43  10 -48 -27 -92 -19  16   3  11 -27  17]
 [-36 -24   1  24  56 -43  -2  32 -26  14  23  -3  29  -5  27  96]
 [-12  15  14 -18  58 -10 -12  16 -28   8  -6  -1  18  13 -23   4]]
[[ -38   19  -18  -30  -41  -24  -12  -22    6    7  -10   13  -28  -28
    23  -17]
 [  38   -1   13   17  -23   92   -5  -49  -14   -3  -21   16  -32    7
   -27  -62]
 [ 103  -55   10   28 -104   43   20 -101   12  -87    6   10  -21   -2
   -33 -127]
 [  83   -6   15   14   21    2   21  -17  -23   -7  -31   29    8   27
    16   22]
 [  11    4    1   -3   44  -13   11   92  -23   10  -10  -18   -3   18
    -1   25]]
[[ -16   14  -32   -8    8  -32  -12  -10  -16    3  -34    6    9   -3
   -19   -4]
 [ -62  -10  -27  -32   11   -8  -14  -14  -28  -28  -17  -32   -5  -16
   -29  -42]
 [ -60  -10  -31   25    8   46  -14  -23   11  -83   24   12   10   -6
   -28 -115]
 [  -8   22  -14    6  -67    8  -32  -19  -21  -68  -27  -12   19  -33
   -33 -124]
 [  14   -7   16   29   -4   28    0  -51  -27  -49  -17  -11   27    5
   -16  -37]]
[[  0 -32 -14   9 -18 -69  13  26  20  27   7 -21  11 -12 -27  44]
 [ 18 -42  17  -3  15 -30  10  -3   8  36 -30 -22  10 -23 -10  12]
 [ 15   3 -22 -24  24 -20  15  56  23  13 -20  16 -34  11  -4 -11]
 [ 35 -27   3  24  41  23   6 -16 -30 -23  -2   2  -5  15 -32 -79]
 [ 52 -60  15  22  36  12   6   2  31 -38  29 -25  16 -32 -14 -38]]
[[  49  -51   31    6  -41  -47    8   -1  -17   45   -8   24   -3  -21
    20    7]
 [ -46   25  -10   18   42  -60  -19  -24  -15   87  -23    1  -16  -22
     7   53]
 [-107   19  -12   15   14   63   20   15   30   -7  -23    8   18   32
    24  -49]
 [ -79   33  -26  -11   53  102  -28    2    0  -57  -24   16   -9   14
    -6  -11]
 [  34    2   24  -29   -6   31   20   24   19  -47   21  -20   27   21
    11    3]]
[[ 34  21 -12  16 -19 -20  26  34   3 -44   1   2 -22   3  22  22]
 [ 28 -54 -17  20 -23  -7  21 -24  12 -55  -9  16 -17  26 -31 106]
 [ 33 -75  20  22 -14 -35 -29 -49  31 -70   8  17 -32  17 -25 111]
 [ 11 -60 -34 -15  78 -75  -5  39  16  17 -34 -34 -20  13  23 127]
 [-21  44  31   9  36  15   6  44  26 -22 -14   7 -34  -7  16  47]]
[[  11  -23   16    9  -49    8   13  -32   13    1   -7  -25    3  -20
   -24   20]
 [  56   -3  -15  -28  -66    3  -24  -62    3   -5   -3    5    3    3
   -16   48]
 [ 126  -26  -22   21 -122   59   17  -75   -3  -56  -27   29   11   -9
   -17   -3]
 [  94  -47  -18   24  -20  -15   20  -56  -18   44  -28  -20   24  -17
    18   98]
 [  -1   14   23   33  -12  -47  -11   54  -24   48   14   21   16   19
    -2  115]]
[[ 20   2   5 -11 -58 -12  -1 -41  16  12   3  29   5  30  21 -34]
 [ 13  13   8 -33 -25 -10   1 -62   1  -3 -14   8  -9 -12 -31 -68]
 [-53   3  31  15  -9  23 -24 -54  22 -61   2   6  20   4 -12 -87]
 [ 34  -3  16 -16 -60  28 -29 -75  28  27  14  17 -19 -25 -10 -43]
 [ 28  -4  -5 -20 -25 -41   7 -65 -18  56 -32 -10  -9  31  21  28]]
[[ 10 -34   1  -2  -7 -26   6 -34 -19   4 -28 -31  27  31  14  17]
 [-54 -17  29 -21  24   8  -6   3   6 -19  -5  -3   6  14 -10   7]
 [-40  14   9 -25   6  78  -2  32   8 -64   3  10   4  28  14 -85]
 [ 49  10 -19 -32 -43  35 -23  -7  13 -55 -27 -12 -20 -24  -8  -2]
 [-18 -24   6  -9   1 -11   4  21  23  66  22 -15  20  16 -25  31]]
[[-16  -4  15  21  18  -2 -26  40   6  39 -26 -14   4 -12 -13  48]
 [-79  27 -19  27  52 -14   6  69  -7  -8   5 -19 -33  24 -10  83]
 [-45  19  -3  32  13 -20  -6  28 -15 -94 -13 -16 -28 -12  24  24]
 [-34  15  -2  12   3 -42   4 -16 -18 -52 -18  13  -6  15  29   4]
 [ -5 -12 -24 -20 -35 -22 -30  -2  -2  -3  10  -1 -25  29 -33  32]]
[[-12   1  -5   2   7   7  22  22 -22 -41 -11   2  25 -11  20  13]
 [ 18 -32  -1  -2 -29 -31  29  12 -11   5 -24 -25  10   2 -22  42]
 [ 20 -51  -6   6  16 -30  -2  -5 -27 -49  12  -7 -11  19  12 104]
 [  2   9 -17 -15  49  -8 -23  22 -15 -89  -8  24 -18  19 -19  49]
 [-18  25 -21  21  -8 -30  -6  39  -8 -23   7   4 -22 -21  17  71]]
[[  5 -19  20  10 -34 -23 -20 -49  14   6  -1  23  16  10 -16  45]
 [ 31 -20  28   4  -5  22   5 -65  11 -25   4  23 -14  -4   7  61]
 [ 42  10 -14  -8 -18  -1 -10 -53 -25 -72 -24  28   6  -5   1  27]
 [ 78   6 -11 -18 -51 -19 -14   3   5   6  25  11  21 -11   1  48]
 [ 53 -35  25  10 -51 -18 -18  15   0  97  -6  20  -1  -6 -25  75]]
[[ 10 -22  -1  -5 -33 -24  11 -47  -9  35   6 -16 -23  10 -16   2]
 [ 54   9   1  12 -14  41  13 -29  10 -31  -8   1 -21   4  10 -60]
 [ 67 -32  -1 -27 -31  26  -2   8  -2  -9  11   1   6  22 -21 -21]
 [ 11  20  -6  20 -30  -8   4 -28 -26  76  -5  -6  11   5   3   5]
 [-32  -5   4 -13  -7 -43 -21 -56   6  91   5   0   1  12  13   7]]
[[   2   10   -5  -24  -12  -63   16   -5   18   15   -2  -18    7   14
     0   16]
 [ -60   26  -15   23   -2    4  -23  -62   -5   -6   22  -19   27   20
    20  -81]
 [  20   -6   27    9  -35   76  -22  -10   28  -65   -3   -3   10  -15
    21 -107]
 [  12   -6   -7   -5    4   25    0  -18  -21  -16    2    8   -2  -18
    28   -7]
 [ -16   -3    4  -25    7   10  -13   15  -15   54    3  -21   14   23
    25    6]]
[[  14  -31   11   14   67    0  -16   21   11    9    2    5  -17  -20
   -25   47]
 [ -49   19   -9  -22   98  -18   19   29  -17  -30   -7   13   14   17
   -16   59]
 [ -44   55  -15   -7   22  -17   -5   45  -24 -127    9  -26   -9    9
   -24   26]
 [ -23   59  -21    5   -6  -30    4   18  -15   -4   16   -2  -14   16
     9   23]
 [ -15   31  -23    9   62   -3  -23    5   19  -44   10  -20   13  -28
    -7  -26]]
[[ 18 -24  -6  23 -49 -19  -5 -16  19   6 -27 -30  -1 -34 -14 -11]
 [ 24  18 -11 -13 -69  18 -18 -52  -1   2 -16  23  -2   9  -6  -8]
 [ 94 -62 -33  25 -39  18 -14 -29  -6  -6  17  21  21   1   9  29]
 [ 34 -44  -5 -14 -14 -47  24 -39 -24  78  12   3 -25 -23   6   9]
 [-49  41 -13 -31  15  61   7  -5 -25   4 -16 -22   9   9   0 -51]]
[[ 17  24  14  25 -27   2  -6   4  -1 -16   0 -24   4  26 -32  10]
 [-33  19 -11  26   8  24  18  -9 -10   1 -23  19  -2 -22 -28 -54]
 [-24   0  23  -4 -49  35 -27 -81 -19 -42 -25  14  -3 -33 -17 -51]
 [-33 -32 -20  -5  42 -15 -10 -74  -4  35   0  13   6   5  25 -10]
 [-35   7  24   2  92 -11  28  77 -27 -44   4 -25   7  15  -8 -36]]
[[  2  10  -3 -17  29 -18  -4 -20 -10 -40 -13  19  -9  -3  -9  14]
 [ 12 -61  13 -31 -17 -27   2  30 -20 -38 -32 -29  -1 -27  15  38]
 [-73   2  -2 -33  23 -64  -5  21  13  46   6  12  23  -3 -13  33]
 [  4  -7   1 -13  37  49   9  11  19 -98  20  17 -27   6  -2 -43]
 [ 20 -21  -5   4  -8 -47  23  33 -27 -46  23 -10  -7 -26  22  48]]
[[  47  -32    2   18  -28  -32   21  -21    9  -37  -22  -17  -13  -28
   -10   30]
 [  -6   26  -17    0  -43  -75   18    3   -7   43   12  -27  -28   22
   -32   98]
 [ -36   12    9   14   38   34   -5   36  -29   67  -16  -23   19   13
    17   38]
 [  27  -15   13  -27  -38    8   -8   59  -24 -117    1   26    1   -9
   -13   32]
 [  74  -52   16  -32  -37  -81   -9  -20    8   12   14   14   -5  -26
     6  115]]
[[  15   24   16   24  -63  -44   18  -75   27   -8  -22  -22  -13  -27
    17    8]
 [ -15   16   15    7  -20   -3    7    0   -2  107   21  -14   25   18
    20   54]
 [   1    3   15    2  -39    3  -32   -6  -23   99  -31  -22    9   14
    11   18]
 [  67  -30   -5  -20 -102   37   -9  -67  -24    9   18   -3    2   -8
   -24  -54]
 [  40  -38  -24   11 -109  -17   10  -66  -27  127    3   19  -14  -21
     2   18]]
[[-23  -1  -3   7  11  35   8  13 -17  19  18  -9 -24 -24  -9  -6]
 [-16  27  21  17  35 -22 -27  38  12   5  18 -14  -1 -18  -8 -34]
 [ -5   2 -22 -23  -2 -41 -19  37  23  65 -27 -15  23  21   8   5]
 [ -5  -4  14 -15 -40  18 -24   4 -10  14  22  22  19  -9 -27 -32]
 [ 30  14 -18  -7 -33 -22  21 -29 -19 -26 -10   0 -20 -14  18 -15]]
[[-34 -13  -7   1  90  10 -11  33  15 -26 -19  17   9  12  -6  32]
 [-37  10  25  15   6 -83  -7  43 -24  -4   5  -7  24   5  22  63]
 [-57  -2  23 -21   0 -61  -6  31  19 102   4  -8 -32  -9   8  71]
 [-36  -9  -4 -27  16  -4  19   9   7  12  -3  -1 -27   1  13 -29]
 [ -3 -14   6 -18 -16  -1   2 -27   6  14  18   5 -12 -19 -13   7]]
[[ 16 -45   9   0 -28  16   8  46  -9  -8  -8   9  27  23 -13 -10]
 [ 57 -10 -17  24 -54 -51 -10 -17  -4  74  25 -15  -6 -23   1  60]
 [ -4 -22 -19 -23   7 -45   7  20   0 127  22 -25   9   4  20 102]
 [ 30 -28  -3  12  14  26  -2  25   6 -59 -22  21  -1  16  12  18]
 [ 11  -4  -8   4   2   0   0  11 -18  49  -5 -10   4   8  17  31]]
[[ 30 -20   2  20 -27  20   3 -27 -23   5   3 -22   6 -29  24 -23]
 [ -1  -1  10 -26 -43  -6  -5 -42  -4  45 -24  -9 -12  13  -5  12]
 [  6 -12  25  -5 -30  10 -23 -50 -25  14  12  20 -13  -4 -29  27]
 [-10  42  25  16 -34  -8  20 -21  13 -24 -22   5 -23 -21  22   9]
 [-35  19 -28  -4  17   8  13  -8 -21  70 -27  21  21 -13 -22  42]]
[[  1  17  -7  21  -9  16  -7 -42   6 -32  12 -21 -25 -30  -2 -28]
 [ -4   0 -17  -3   7  37  20  15 -25 -10  -5   1 -16  -8  17 -42]
 [ 29 -19 -18 -14 -15  -9   9  18  16  -8 -21 -19  23  -1   5   0]
 [ 22  23 -22 -24 -28  -9  -4  -9  19  13 -15  11  17  23  23 -24]
 [ -9  24   5  12  44   7  -3  30  19 -22   5  14  21   9  -5 -15]]
[[   7   15   17    9  -12   -9  -13   19  -14  -20   25    9   13  -21
    27   15]
 [  71  -19  -19   -8  -40   -9    5   16    3  -16   27  -21   -8   -5
    26   34]
 [  62   -9   -8  -25 -102  -70   -9  -28   22   -3    8   27    5  -13
    -1   83]
 [  58  -43  -11   11  -18  -33    4  -11   -2   66    4  -18   10   16
   -12   42]
 [  50  -17    0    0   -2  -13  -26    9   -9  -15  -26   19  -20   17
    -5   63]]
[[ 43   6 -16  10 -36  -5  14 -22 -27  -2 -15  16 -17  30   0   5]
 [-11 -18   0  10 -19 -23   3 -45 -24 -28  10   5  -7  -3  20  12]
 [-84  25  -1 -11  28 -42   1 -43  22  39 -22  -5 -15 -23   7  21]
 [-55  52   8  21 -64  27  16 -17 -18  47 -16  23 -25 -15   7  -2]
 [ 36 -41 -14 -19 -70  17  -9 -14 -14  35  16 -25 -11 -21 -24 -54]]
[[ 10  12 -13  -5 -13  -4 -17 -44   5  12  15  15  23  -1  23  22]
 [ 75 -61  10 -24 -18  44  23 -27 -17 -75  20   3 -11  13  18 -21]
 [127 -78  -7  -1  15  -9  20  28   2  -6   0  21  -5 -11  -6 108]
 [ 18 -56 -15 -11  40 -52 -25  41 -10 105  12  17  19 -22  -9  81]
 [-28  -3  24   9  23   6  13 -48 -10  32  26   1 -21 -18  12 -33]]
[[-48 -23  26 -21  68 -39  -7   5  15 -46  27  15  25 -10  -3  64]
 [-43  40 -14   6 -62 -33  30 -67  23 -26  15   0  30  10  12  32]
 [ 47  33 -10 -25 -50  78  10 -80  28  13 -21  12  -5   1   2 -40]
 [ 29   4 -25  27  24  10  13  29   1 -27  -1 -14   8  12 -23  66]
 [ 14  -4 -15 -19  50 -73  -7  80   5  33  23  -9 -13 -17  16  72]]
[[ 77  -3 -24 -25 -20 -23  28 -11 -15  -2 -21 -17  -4 -28  -6   7]
 [ -9 -24  -2  10  26 -11 -22  11  22  75  19 -16 -22  10  20  55]
 [  5   3  14  -3   3   5 -13  34   1 -24  13 -14 -11 -16  23  22]
 [ 92 -36  24   3 -41  14 -10  -3 -19 -41  25  -4  13   3  27  38]
 [ 19 -21  -4   3 -38 -60 -12 -55 -17 106   4 -19 -26   2  -1  42]]
[[  -8   20   11   24   11   22  -10  -23  -29   19    8  -10  -24  -24
   -16    3]
 [ -40   23   25    4   44  -52   -9   51   22   38    8  -17    7   -1
    -5  -61]
 [ -39   43  -17   24    5   13    6   25    0   86   25  -18  -25   23
     3  -70]
 [ -30   60  -31  -23    1   62  -24    3  -10  -21  -28  -14   -6  -12
     5 -104]
 [  32   13   28   13  -18  -31   13    2  -18   48   17   27   24  -11
    17  -39]]
[[  -3    4  -22    1   27    0    9    2  -24   15  -10   19   10   11
    20   19]
 [ -51   11  -13   -1   80  -20   28   24  -18   10  -10   19  -22   20
    18   29]
 [ -90   35   -6  -23   78  -17   -4   95    8   36   30  -20  -22   27
    22   64]
 [ -96   14  -28  -25   27  -12  -14   41   24 -126  -21  -20   17    5
    14  -28]
 [ -39   52   -3   19   40   11  -11  -15   19   -5  -28   18   16   22
    23    7]]
[[ 29   3  -2 -19  36  15  32  49  23  15  28 -30 -29   5   7   8]
 [-16 -20 -12  31  56 -11  24  52  19  -8  32  -5 -20  14   6  40]
 [ 43 -22  10 -24  36 -13  20  59  30 -10  -8  -7  25  25  15 115]
 [ -5 -54   2  -9 -32 -50  -2  33 -30   5 -27 -21   2  16 -27 127]
 [ 41 -53 -10  29  11 -49  -2  21 -20  14  23 -26  15 -20 -28  50]]
[[ 16   7 -25   5 -47  20  24 -10  10  16  -8 -17 -17  10  17 -22]
 [ 68  18  -5 -16 -58  61  24   7 -18 -21 -19  -2 -26  18   2  -1]
 [ 83 -37 -14  27 -14 -39  18 -20   8  55 -13  20 -20  21 -12  71]
 [ 17 -12  -1   7 -40 -37 -19 -21   5 120  17  -8  27 -27  30  78]
 [ -5  39  23 -18 -43 -11 -25 -55 -15  58  15  18  12  29  25 -34]]
[[-50  33 -19  12  43 -18 -18   6 -29  25 -13  11   9  12  17 -51]
 [ 57  -3  29   0 -66  47  19 -14 -19 -47  19 -10  17   1  22 -72]
 [ 92 -45 -13 -28 -18  -2 -13 -33 -20  21   2 -27 -28 -19  -6 -57]
 [ 14   4  26  24  -9 -39  -7 -32 -29  76   9   2  -8  13   9 -35]
 [-15  10  14 -20   4  29   9  -6  21  31 -28  22 -26   7  18 -34]]
[[  44  -12  -13  -17  -22    7   10    0   -4   -8   14    0  -18   30
     8   18]
 [   9   27    8  -15  -49  -47  -20  -14   -9   47  -15  -25   23    4
     0  -44]
 [ -36   60  -13   21  -26   32  -15  -47   24   26  -29  -19   14   27
    12  -82]
 [   9   60  -26   29  -43   69    0  -14  -25    0   28  -22   11  -24
   -28 -127]
 [  17   -8    9   -3  -16   -1   16  -16    9   -2  -12  -12   -3   22
    23  -55]]
[[-30   2 -18 -14 -51  14 -19 -10  25  36 -10  -2  -7   6  25   5]
 [-28   3  10 -13  54  49  -3 -18  13  22   0  10  18  12   4 -22]
 [-99  44 -29  10  72  -5 -24  42  -4 -26  21  23   8 -28  15 -56]
 [-58   2  11   9  -7  41  16  49 -23 -64 -14  10   7   2  30 -59]
 [-15  31  -7  -3  46  36  22 -19 -15 -51  22 -20  15  -9  -7 -83]]
[[-21 -20  25 -19  40 -21  15  35  21  -6 -20  14  -9 -22   9  26]
 [-21 -17 -24  19  30  22   5  75  16 -38  24 -17 -21  28  23  10]
 [-40  31 -29  14  28 -17 -12  56  24 -61  28  13  -1   3  -5  -1]
 [-49 -25  26 -24  78  11   3  20  -7 -37 -21 -28  15   5  11  30]
 [ -9 -55 -16   3  13  33  16  74 -16 -96  17  26 -14 -18  21  31]]
[[ -5 -10   1 -21   9  17  25  -1   4   7 -13 -28 -28   5 -20  31]
 [ 23  12 -28 -19  50 -15  14  19   5   1  26 -17 -21  24 -12   3]
 [ 18 -35  27  25  -2 -48  -4  41  -6 -11   8 -23  11 -11  25  63]
 [  7 -37  25 -18  16   1 -10  16  -2  24 -13 -23  18   3  -7  39]
 [ 71 -45  22  12 -64 -50   9 -14 -25 -33 -25  29 -22  20   6  11]]
[[ 32   7  -2  27 -29  17  -6 -27  21  34  22 -18  -8  10  10  -9]
 [ 61  10 -16 -23 -77  38   1  -8  18  38 -28  19  -1 -14  31 -44]
 [ 84 -49 -10   5 -50  16  16 -46 -17  91   4   1  -4 -21   8 -45]
 [ 59 -46 -23   9 -57  25 -26 -39  23  75  -3 -20  -6 -18  28 -39]
 [ 45 -26  -1  27 -73 -19 -14 -80  14  79   6   6 -18  22  25 -12]]
[[-31  -6  21 -23  23  44   5 -24  -9  13  17  16  19 -21   9 -14]
 [-69   9  -6 -29  54  46  10   6  19 -15  18  12   8  -9  22 -83]
 [-41  10 -23 -19 -31  19   5  37  -8  -5  20 -14  -2 -19  -6 -40]
 [ 38 -22 -28 -23 -69 -25  17 -26 -18   4 -33  -8  -8 -32  -8  -7]
