[[  0  10  25  14  18  47]
 [ 49 -36 -10  31 -47  26]
 [ 51 -26 -13  24 -25 -48]
 [ 48 -40 -12  55 -23 -38]
 [ 20  -4 -27  46 -20 -51]]
[[ -3  13  -8  39  11  -6]
 [-19  23 -34   6 -28 -47]
 [-73  30 -75   4  38 -62]
 [-37  54 -88 -38  17 -98]
 [ -3  29 -58   5  22 -71]]
[[ -46   28    9   23   -6   10]
 [ -96   24   -3  -67   37   30]
 [-127  102  -52 -106   93  -17]
 [ -93  120  -57  -67  114   -5]
 [ -58   92  -21  -61   77    6]]
[[ -3  28  14  21   6  79]
 [-30  -3  20  -3  54  71]
 [-29  -2  14 -71  57  75]
 [-27  33  29 -65  70  44]
 [-16  39   4   3  39  29]]
[[ 64 -51  35  61 -63  50]
 [ 78 -66  41  54 -31  70]
 [ 54 -81  32  31 -61  72]
 [ 53 -42  53  40 -67  53]
 [ 31 -60   5   6 -38   7]]
[[  7  10 -18 -32  42  24]
 [-23  23 -19   3  -7   3]
 [-38  41 -50   7  10 -21]
 [-54  38 -13 -14  32 -22]
 [-52  13 -24   7  49 -30]]
[[ -8   0  -2  12  -2  39]
 [-13  31  34 -45  28  -8]
 [-44  45  -1 -52   4  44]
 [-31 -20  30 -51  50  21]
 [-30 -24  -2   6  -9  43]]
[[  -7   -8   45   22    7  -14]
 [  71  -63   50   30  -13   34]
 [  47 -110   71   30  -52   49]
 [  57 -127   80   41  -73   53]
 [  47  -56   50    6  -54   21]]
[[  64  -11   35   39  -67  -55]
 [  52  -62   44   86  -94  -75]
 [  62 -103    9  112 -101  -55]
 [  38 -112    9   88 -101   -8]
 [  10  -93   60   56  -77  -30]]
[[ -11   -6  -59    3  -13  -38]
 [ -20    6  -16  -13   -9 -110]
 [ -11   44  -52  -23   13  -88]
 [ -13  -29  -24   15   -1  -42]
 [  37  -49   45   31  -55    1]]
[[ -24  -55  -43  -75    3  -85]
 [ -62 -127  -18   11  -31 -102]
 [ -93  -25  -95   29  -16  -94]
 [ -84  -84  -15   15  -26 -113]
 [ -49   15 -102  -72   -1  -32]]
[[  -8 -100    3  -71    4   -4]
 [ -19  -83   -6   13  -63 -110]
 [ -32 -106   -8  -42 -118  -51]
 [  -7  -85  -76  -31  -39  -75]
 [-105 -100  -43    0  -59  -56]]
[[ -67  -17    0  -65    6 -108]
 [ -14   -5  -69  -97  -36 -105]
 [ -32  -84 -112  -57  -52  -51]
 [ -63   10 -108  -75   12  -98]
 [   7   17   -7  -52  -92  -55]]
[[ -22  -38  -70   -1 -109  -82]
 [  -6  -30  -99  -82  -79  -11]
 [   5 -112  -33  -16  -61  -71]
 [-112   21  -90  -68  -86 -108]
 [ -37    5  -51  -13   -2  -58]]
[[ -87  -76  -91 -102  -10  -61]
 [  19    5   24  -73  -81    4]
 [ -18  -94  -27    3 -117   -9]
 [ -13 -106  -59 -116  -47  -24]
 [ -85  -82  -74  -67  -83 -111]]
[[ -82  -50  -57  -54  -60  -57]
 [ -81 -106  -68  -41 -118  -41]
 [ -81  -77   -2    6 -103 -101]
 [-111   10  -72  -81  -69  -23]
 [ -87  -70  -51  -95  -12 -121]]
[[   1  -17  -71  -15  -39  -64]
 [-127  -62 -120   -8 -120  -92]
 [-123  -74 -103  -40    2  -58]
 [ -88  -53 -118  -56  -81   17]
 [ -23  -20  -29 -100   11  -53]]
[[ -84   -2   13  -12  -29    6]
 [ -65    9 -115  -13  -68  -38]
 [ -65  -58  -54 -122  -69  -96]
 [ -36  -80   16  -16   -2    5]
 [ -83   10 -116  -31  -13    0]]
[[ -72   10  -27  -83   11  -87]
 [ -67  -16  -67  -83  -56  -85]
 [  -9  -35  -22   -9   22  -76]
 [ -76  -70   25  -48  -71 -115]
 [ -15  -89   20   15 -101  -10]]
[[ -75  -28  -57  -90 -104    1]
 [ -44 -106   20   13  -23  -29]
 [ -40  -61  -48  -72 -123 -116]
 [ -26  -98  -38  -76  -28  -19]
 [ -67  -28 -115  -97    5   -5]]
[[-12  21  12 -15  -4 -14]
 [ 17  11 -24  11  10 -45]
 [ 41  -1  46  19 -55  65]
 [ 22  -4  65  46  -6  47]
 [ 16 -66  69   6 -23  77]]
[[ -38   -3  -35  -30   46  -17]
 [  30   13   10  -40  -29   36]
 [  83  -55   73   37  -80   60]
 [  55  -80   96   95  -64   85]
 [  89 -114   69   62  -94   80]]
[[  -3    2  -31  -17   22  -33]
 [  39  -29   48   25   -3  -48]
 [  51  -99   27   66  -55  -60]
 [  87 -107   54  110 -119  -44]
 [  51  -86   55   79  -99  -76]]
[[  36  -18   17   -9  -45   14]
 [ -31  -11  -44   22    5  -46]
 [ -18  -21    1   20    5 -103]
 [ -51   -9  -75   -6   32 -127]
 [ -42   41  -34  -42   23 -103]]
[[ -26  -41   26   33  -49   30]
 [ -14    3  -17    4   51  -35]
 [ -66   50  -30  -47   79  -21]
 [ -47   96  -22 -103  108  -40]
 [   8   60  -22  -53   87  -55]]
[[-31   1 -26 -49  11   5]
 [-53  12 -47 -28  22  37]
 [-32  20 -29  19 -15 -26]
 [ -6   7 -25   9   8   8]
 [ -4  26 -34  -7 -20 -12]]
[[-14 -17  13  -4  28  33]
 [ -1 -34  19  11  18  41]
 [-18  16  12 -18  -3  22]
 [-40  21   9 -44  33 -39]
 [-45  30   7 -17  46 -10]]
[[ 61 -48  72  27 -63  46]
 [ 30 -78  83  82 -68 106]
 [-23 -74  65  21 -50  79]
 [-64 -33 -10 -37   9 -17]
 [-60  43   7 -63  64 -21]]
[[  85  -48   39   83  -43   65]
 [  91 -112   57  108 -127   77]
 [  33  -88   16   74 -105   39]
 [ -30  -38   37    8  -38   27]
 [ -52   18   23  -39   20   18]]
[[  82  -15   16   51  -81  -19]
 [  40 -100   23   54  -84   33]
 [ -20  -77   22   41  -58   12]
 [ -33    4   23   -7    5  -42]
 [ -29  -22  -24  -40   34  -28]]
[[ -46  -16  -80    9  -34  -95]
 [ -97  -72  -89   35  -54  -23]
 [  30  -42    7  -40 -111  -61]
 [ -67 -122    4  -92  -12  -22]
 [  25  -60  -91   15  -24  -37]]
[[   5  -67  -96   29  -43  -89]
 [ -65  -25   21  -70 -119  -30]
 [-101   30 -117  -43 -112   -7]
 [ -65    2  -60  -17  -16  -18]
 [ -44 -117 -103  -44  -29 -107]]
[[-103   -9  -18  -54  -95   21]
 [   2  -92  -61  -82  -68   14]
 [ -92  -68  -17  -12   15  -62]
 [ -27  -67 -107  -83  -93  -50]
 [-125    8  -23 -113   28 -114]]
[[ -18  -10  -99    9 -109   40]
 [ -90  -88  -39 -120    7  -78]
 [-101  -54  -47 -120   -5 -121]
 [ -45   -9  -68  -87  -40 -114]
 [-120  -21  -34 -127    6  -87]]
[[ -96  -24   27  -35   11   16]
 [ -68  -36  -44  -58  -72   36]
 [-108   -6  -91  -23   46  -85]
 [ -22  -52   13  -59  -53  -42]
 [ -21   51  -37  -84   31  -26]]
[[-13  21 -17 -25  23 -12]
 [ 91 -16  67  53 -36  68]
 [ 84 -62  90  58 -58  62]
 [ 74 -90  90 100 -67  72]
 [ 36 -64  42  53 -83   6]]
[[  60  -19   33   40  -43    6]
 [  66  -69   44   88  -64  -24]
 [  56  -92   54   88  -83  -29]
 [  31  -73   67   66  -97   -3]
 [  16 -107   74   46  -87   24]]
[[  31   -5    1   40  -63  -47]
 [  -6  -16  -18   63  -52 -121]
 [  -4   -9  -55   44  -30 -127]
 [  -7   15    9   31  -29  -47]
 [  31  -55   48   11  -46  -62]]
[[-67  37 -63 -46   2 -27]
 [-62  82 -83 -38  58 -49]
 [-82  69 -44 -68  77 -69]
 [ -8  79  -2 -53  81 -61]
 [-10  38 -31 -19  -5 -54]]
[[-43   2 -21 -31  68  30]
 [-17  78 -31 -93  85   3]
 [ -1  40 -14 -38  47  31]
 [  0  37 -40 -38  31   7]
 [-17  23  -2 -15   8 -16]]
[[-54  -8 -44 -64 -25 -55]
 [-35   9 -40 -62 -20  12]
 [-83 -28 -99 -63  -5 -33]
 [-54 -97 -76  23 -85 -19]
 [-83 -46 -76 -45 -96 -33]]
[[ -35  -82  -56   -2   20   18]
 [ -70   -2  -95    2  -77 -100]
 [ -63 -106  -20  -24  -70   18]
 [ -31  -59   41  -51  -61  -14]
 [  23  -32    6  -21  -38  -49]]
[[  24  -85  -69  -83  -76  -40]
 [ -24  -78    4  -39  -27  -60]
 [ -16 -118   -8  -34  -48  -40]
 [ -62  -61    8  -57 -127  -19]
 [  22  -67   -9  -91  -99   23]]
[[ -90   18  -87   -5  -79    5]
 [ -33   -1  -19  -30   -4  -22]
 [  35  -88   -7   -4    4  -24]
 [ -72 -109  -89  -28  -98 -100]
 [ -11   -9  -83  -59  -73  -39]]
[[-11 -32 -77 -79 -22 -14]
 [-52 -96 -65 -18 -82 -34]
 [ 10   8 -69 -30 -71 -33]
 [-14 -66 -25 -97 -86 -32]
 [-73 -45 -62 -47 -10 -73]]
[[ -48  -61   -3  -10   -8  -46]
 [ -57   27  -45  -35   37 -104]
 [  -6   37  -15  -61   18  -58]
 [  28   23   17   -3    1   35]
 [  -4    9   20   29  -38   40]]
[[-79  -5 -58 -12  31 -88]
 [-60  94 -54 -58  76 -72]
 [ 14  74 -30 -49  44  -9]
 [ 27 -26  42  -4 -20  38]
 [ 27 -38   3  18  -9  31]]
[[-96  38 -78 -99  89 -91]
 [-41 127 -36 -97  99 -29]
 [ 29  64  -9 -25  14  23]
 [ 11 -48  25  59 -49  58]
 [  9 -47  29  17 -64  32]]
[[-82  56 -35 -67  90 -11]
 [ 25 104 -21 -56  64   0]
 [ 37 -19  57  51 -64  65]
 [ 43 -58  66  57 -93  69]
 [ 15 -35  -3  56 -26  44]]
[[-20  33 -44 -58  49  29]
 [ 62  38  28  20   1   8]
 [ 52 -65  34  56 -60  35]
 [ 34 -73  57  57 -61  38]
 [ 10 -76  25  24 -38  19]]
[[ -48  -15  -20  -95  -36    4]
 [ -20  -20  -64  -30  -65  -64]
 [ -68  -94   -1  -30   -3  -98]
 [   9  -95  -99  -34 -107  -72]
 [  35  -97   28   -5  -70  -87]]
[[ -72  -63  -84  -40   28  -40]
 [ -96  -20   -7    3   17 -100]
 [ -40  -62   17  -73   11 -113]
 [  19  -26 -109  -42  -22  -74]
 [   5   23   20  -39  -44    4]]
[[   0   20 -100  -33  -90  -20]
 [ -36   35  -49 -121   21  -27]
 [ -45   21    9  -24   -4  -86]
 [ -34  -57 -107  -44    9  -68]
 [-101  -79  -92  -30  -35  -71]]
[[  17  -83  -63  -67  -80   23]
 [   8  -47  -58  -80    7  -72]
 [  -2 -111  -26  -66 -110  -40]
 [-102  -15  -27  -98  -34   11]
 [ -41  -39   16  -71  -30  -71]]
[[   8   -3  -46  -95  -84  -50]
 [   7  -28   -7  -27 -127  -86]
 [   7 -116    0  -11  -18  -47]
 [ -13  -31   12   15  -88  -98]
 [   2   -6    8  -60  -60  -83]]
[[ -33  -29  -52    9  -34    6]
 [ -47    0  -91  -86 -102  -10]
 [   4  -62  -88  -42    5   11]
 [ -55  -46  -98 -109 -107   10]
 [ -32   -7  -73  -62 -107  -96]]
[[ -43  -44 -127 -117  -96  -60]
 [ -33 -103  -92 -102  -80   -4]
 [ -64  -42  -17   -9  -76    3]
 [  10  -85 -113   -9  -96  -33]
 [ -83  -24 -115  -62  -34   15]]
[[  -1  -70 -123  -15 -110 -117]
 [ -83 -107  -87 -107   11  -71]
 [ -48   -1   -5  -54  -13    5]
 [ -63    5    9  -39    6  -86]
 [ -25  -23   12    6  -57  -57]]
[[ -45  -83  -37  -56  -72    9]
 [   7   13  -66 -114  -10  -21]
 [-121  -91    7  -93  -32  -21]
 [ -55 -127  -93  -25    6  -73]
 [ -36 -117 -121  -39 -124  -27]]
[[ -12    1    7  -64  -29  -86]
 [  12  -54  -78  -73  -44   -5]
 [  -6  -80   -3  -86  -14  -55]
 [ -11  -94  -81 -106   10    7]
 [ -61  -91  -86  -37  -96  -54]]
[[ -71   31 -106    4    7  -40]
 [  10   13  -88    3  -28  -19]
 [   6  -98 -103  -45 -108  -35]
 [ -76   -6  -85  -68  -12   12]
 [ -73   35  -53  -61   28   -7]]
[[ -96  -30   20  -63   11   13]
 [ -97   10    4  -61  -96  -39]
 [ -21  -83  -34  -84  -76  -53]
 [   1   12 -108  -95   16  -72]
 [ -79  -61  -47  -82  -20   15]]
[[ -72   -4   31  -29  -48  -28]
 [ -82  -62   18  -47  -94  -98]
 [ -93  -34  -73  -36 -106  -51]
 [ -58  -99   -6    3  -25  -96]
 [ -94  -60  -96  -99  -42  -17]]
[[  14  -91  -11  -36  -95  -38]
 [ -51  -59  -63  -36  -47   35]
 [ -68 -119  -34    4   15  -11]
 [   0 -103  -39   14    9  -42]
 [ -34  -78   28  -91  -38  -37]]
[[ -29 -102  -56  -28 -127  -91]
 [ -59  -90  -16   -3  -33  -30]
 [  18 -112  -69  -11  -19   11]
 [ -67   -8  -63  -94  -64  -89]
 [ -89 -118   21  -56  -30  -70]]
[[ -97   13  -11   -9   -7  -89]
 [ -66 -115    7  -35 -112   -1]
 [ -54 -121   13  -10  -29   32]
 [ -89  -18  -57  -26   -7   38]
 [ -36  -87  -50  -85 -107    0]]
[[  26    1  -84  -35    7  -76]
 [ -72 -120  -44  -67    3    1]
 [  28  -35  -89   -3  -90  -61]
 [ -12  -99  -74    5  -59   24]
 [ -95 -127   20  -59  -72  -56]]
[[   7  -15  -13  -23  -45 -109]
 [ -88   -6    8  -62  -31  -46]
 [  -1  -40   33    8  -50 -100]
 [  42 -127  -61  -63  -36   27]
 [ -55  -30   11  -87 -118  -43]]
[[ -36 -104   13  -97  -83  -21]
 [ -83  -76  -53    0 -114  -56]
 [ -41 -101  -15  -46  -65  -69]
 [   3  -90  -56   13  -48 -102]
 [ -60   12  -49  -41   12 -107]]
[[ -22  -83  -23  -90  -77  -10]
 [ -40   -8  -38   -8  -86  -75]
 [ -10  -69  -34  -89   10 -101]
 [-100  -68   -6  -32  -87  -88]
 [ -27    1  -70 -114   33  -13]]
[[ -79 -109  -81  -84  -60  -72]
 [ -67  -99 -100  -60   10   11]
 [ -20 -126 -105  -21  -22  -87]
 [ -90 -110  -98   11  -93  -16]
 [-113    0  -83  -63  -48 -105]]
[[ -23  -86 -116   17  -64  -80]
 [  26  -83  -88  -40   18  -71]
 [  -4  -65  -17   -2   13  -21]
 [  -7  -49 -105   -7   18   -1]
 [ -65  -35 -123  -86 -122  -23]]
[[ -78  -77 -107    1  -62  -21]
 [  19  -67 -109  -97  -56 -109]
 [ -80   -8  -74   12  -79  -49]
 [ -22  -57  -99 -123  -42  -69]
 [   0  -92  -96   19  -45   16]]
[[ -63 -121  -89   13  -75  -73]
 [ -96  -47  -26 -127  -15  -73]
 [ -57  -95  -41 -124  -10  -57]
 [ -21 -126  -31   12  -28  -38]
 [ -35  -71  -34    2 -110    0]]
[[   7    8  -50    6  -97 -106]
 [  -8  -49  -80  -66   15  -21]
 [ -43   13  -96 -117 -126  -55]
 [   1  -87 -101   24  -83   12]
 [  23  -25    1 -103    9  -82]]
[[ 36 -40   8 -12  14   1]
 [ 46 -16  10  19 -24  21]
 [ 31 -46  26  -8   7 -21]
 [ 72 -14  46  67  -2  10]
 [ 34 -57  65  46 -27  56]]
[[ -3  39 -47   2 -17 -60]
 [-20  42   6 -25  29 -86]
 [ 46  38 -21  32  20  -8]
 [ 44 -32  24   3 -36 -46]
 [ 22  -4 -20  12 -38   8]]
[[-74  65 -81  -8  81 -49]
 [-63 103 -77 -68  47 -94]
 [  9  63 -17 -22  49 -72]
 [ 29  71 -63  -3 -14   4]
 [  1  57 -42  25  13  -6]]
[[-114   47  -80 -102   95  -46]
 [ -98  127  -48  -91   91  -28]
 [ -29  126  -69  -65   72  -16]
 [ -31   74  -33  -21   45  -26]
 [ -22   83  -47  -15   56  -36]]
[[-60  90 -17 -36  81  -3]
 [-13  85 -35 -65  90   7]
 [  7  60 -17 -26  78  -6]
 [-43  46 -17   4  63  41]
 [-68  58 -63 -67  66 -19]]
